,service,food,anecdotes/miscellaneous,ambience,price
0,0.0016089267,-0.0022724655,-0.0012740451,0.001698246,0.0020770265
1,-0.06018951,8.161282e-05,0.0041541383,0.017211998,0.014278332
2,-0.0030831099,-0.0014039635,-0.004463181,-0.00026120298,0.067137145
3,7.4876785e-05,0.00018895318,0.0028681038,-0.05284819,-0.0028013682
4,-0.0025220066,0.0012629213,-0.0011906232,0.041973837,0.06841949
5,0.020840934,0.003221928,-0.0018846942,-0.039666668,-0.046933692
6,0.00034473537,0.0033154353,0.00377557,0.048522815,-0.0296692
7,-0.00021243763,-0.008476339,0.00089729065,-0.002544971,0.006612827
8,0.047712132,-0.009951012,0.004254433,0.00022277255,0.021657437
9,0.0021470706,-0.004700994,-0.005097854,0.033240996,0.07304652
10,-0.003412171,-0.0038514924,-0.0035896206,0.035388615,-0.06802931
11,4.539261e-05,-0.00074319565,-0.0030903833,-0.03257114,0.020116216
12,-0.022070743,-0.0036445216,-0.0005670509,-0.004595882,0.045829322
13,0.051443376,0.0009275492,0.006885969,-0.021312373,-0.053408813
14,-0.0023598336,0.0016257507,-0.0018606546,-0.027817862,0.046819277
15,-0.033306587,-0.006020131,-0.0025799896,0.013587384,0.06877196
16,-0.0020528764,-0.0037184842,0.0021336756,0.06496866,-0.07662109
17,-0.007367699,-0.00048132983,0.04258169,-0.007692517,0.006946127
18,0.0007568598,0.00016668625,0.00092187256,0.02437217,0.055171505
19,-0.038621876,0.0010269061,-0.0044314237,-0.06410867,0.0049312473
20,-0.0013050133,-0.0006613362,0.0017135575,0.021402707,-0.03445956
21,0.002132789,-0.010146032,0.003422224,-0.030776331,-0.073236115
22,0.025075521,-0.00044461348,-0.00092552,0.051010616,-0.022989621
23,0.0009974411,-0.0031515392,0.00190991,0.058596518,0.049404386
24,-0.023186019,0.010180543,-0.0031246173,0.000875985,0.054127645
25,-0.008576403,-0.013683246,-0.003204417,-0.0029235997,-0.06678692
26,0.03158498,-0.00072038977,-0.03491959,0.06733234,0.0070897243
27,-0.0013932693,0.01696152,0.0024967045,0.03147624,0.022218065
28,-0.028781665,-0.00047152815,0.03453177,-3.8550657e-05,-0.03480156
29,0.043122545,0.009632186,-9.471925e-05,-0.01584284,-0.076944165
30,-0.054885194,-0.00066634757,-0.008273155,0.0035296087,-0.06299793
31,0.04583913,0.008179059,0.0052291118,-0.0071949335,-0.022725696
32,0.05400036,0.0037984084,0.006081671,0.026705002,-0.07486903
33,-0.00023766713,-0.0028697408,0.005222824,-0.03268755,-0.029694865
34,-0.025776984,0.005767594,0.0090760775,-0.045905337,-0.071074106
35,-0.00046126236,0.007622146,0.0082995305,-0.00020330587,-0.0675527
36,-4.7111054e-05,0.00093831413,0.002758512,-0.063611,0.0803996
37,-0.008274987,0.007289343,-0.0005746298,0.00069332245,-0.0004105817
38,0.047399312,-0.005506682,-0.00090379984,0.0007726835,-0.0015696437
39,-0.035024907,0.0006594526,0.0013983372,0.033675943,0.029922113
40,-0.052483644,0.0069906944,0.0005488507,-0.05361661,-0.0059155854
41,0.010446117,0.00041326543,0.00017979811,-0.011515468,0.034702525
42,0.06326894,-0.003710259,-0.0022994177,0.024154227,0.051133264
43,0.04254829,0.0085418895,0.0007324044,-0.037758023,0.013218837
44,-0.014175338,0.0124238515,0.0037462555,-0.056681775,-0.018244874
45,-0.002110764,-0.0002615201,-0.0026625928,0.00015072903,-0.0065072775
46,0.037417464,-0.004829727,-0.0015074905,0.017746685,0.04938985
47,-0.05217917,0.0002960389,-0.007854538,-0.058544327,0.036924247
48,0.0445974,-0.005085648,-0.0016420556,-0.014426506,-0.011514979
49,-9.180107e-05,0.009520871,-0.0011713081,0.010527913,-0.00020888216
50,-0.059656758,0.00047332837,0.035326425,-0.06411286,0.05392784
51,0.025222575,-0.003943572,-0.0021582874,0.0008781511,-0.08583825
52,-0.034242634,-0.005463134,-0.0024587833,0.010912649,-0.06369748
53,-0.045234084,0.010690769,-0.013135513,-0.02340756,0.0124116745
54,-0.023409104,-0.005392725,-0.0039945184,0.0029038864,0.0428012
55,0.037617844,0.0017304838,-0.002765444,-0.00033965046,-0.0045000515
56,0.046493452,-0.018214194,-0.0055785994,-0.056793526,0.05199388
57,0.008578971,-0.010276652,0.0013491847,0.023826052,-0.043161467
58,0.047226433,-9.448019e-05,0.0020197611,0.0102174375,-0.0011274314
59,0.0044205864,0.0012715678,0.00079468224,0.051755793,0.024649091
60,-0.008711331,-0.0025804283,-0.0012975971,0.00015495774,0.034283724
61,-0.0002764835,0.02041372,0.005743633,0.01609288,-0.007070716
62,0.031564746,0.0035879242,-0.0016203369,0.03752167,0.012409383
63,-0.0029666473,8.099117e-05,-0.00021563028,-0.010521399,0.007299
64,0.047476325,-0.0037529601,7.519212e-05,0.017653514,-0.03777115
65,3.0171377e-05,-0.0060113147,0.034419943,-0.035860192,0.013389177
66,-0.009324537,-0.0065963236,-0.0067522842,0.0362609,-0.020581182
67,0.055653363,-0.000799408,-0.0025245138,0.02979449,-0.029899227
68,0.027363978,-0.004438594,-0.0031984276,-0.0058715316,0.012233153
69,0.00083308876,1.7863762e-05,-0.002188065,-0.03136121,-0.030106612
70,-0.00020358461,-0.015522272,0.0026141594,-0.008621418,-0.05667949
71,-0.0028744899,0.0011063011,0.008808521,0.0015979136,-0.08577378
72,-0.054190744,-0.00078079745,0.014025871,-9.2049345e-07,-0.016448691
73,-0.033098344,-0.008804446,0.03488366,-0.0009302976,0.026585242
74,-0.02802695,-0.003840909,0.024882205,0.00021532566,-0.011451604
75,0.03492899,0.016131679,0.0036403446,0.06286311,-0.05859736
76,-4.6267356e-05,-0.0072990335,0.001325169,-0.024742989,0.07591408
77,0.020269094,0.020840596,0.0025718496,0.059329953,-0.0006364732
78,-0.022606175,0.010139714,-0.0048310063,0.058552127,0.016417166
79,0.002479778,0.00014710755,0.0010038405,0.00057592755,0.050764654
80,-0.060197506,-0.0017482277,-0.0019773233,0.010016014,-0.008934204
81,-0.038079888,-0.00059834856,-0.042940225,-0.063938096,-0.024624296
82,0.00067760964,0.0056380564,-0.0018393844,0.049817707,0.01675406
83,-0.011887576,-0.0051349252,0.00010758357,-0.03251864,0.012920847
84,0.026973631,-0.010384156,0.024199571,-0.009511839,0.0022669667
85,0.0011397321,0.009063989,-0.0044074836,0.02079545,-0.06315223
86,0.060916483,-0.006185817,0.006533049,-0.00086103036,0.027676765
87,-0.0005257675,-0.0039158054,0.004307097,-0.038240317,0.0826367
88,-0.001110096,0.0020287507,0.0014125634,-0.013897137,0.026270049
89,0.038223255,-0.0006242434,-0.03547818,0.03821241,0.050276525
90,-0.043710876,0.0021215111,0.0016952729,0.043308623,-0.004755419
91,-0.01999323,-0.008239165,0.00037211116,-0.02284524,0.029114481
92,0.060927223,-0.003919531,0.0015855301,0.05892679,-0.06101298
93,0.00067208335,0.00828206,-0.0006725778,0.010901431,0.037976023
94,-0.0571802,0.014338389,0.0023051566,-0.00020345277,-0.05454877
95,-0.0002612881,-0.0027135052,-0.003077014,0.028467216,0.005041333
96,0.0037526072,0.0023532072,-0.00036426887,-0.038980156,0.05464898
97,0.050861586,0.005893982,0.0031128915,-0.0015673826,0.005691184
98,0.02738644,-0.002736563,-0.0011444394,0.017582772,0.019453209
99,0.016039085,0.00861707,0.0037773938,0.007628665,0.00038849612
100,-0.05563742,-0.0094031235,-0.00013340067,0.04386577,0.028401423
101,0.001034871,0.003943044,0.0020463557,0.03244001,0.074551515
102,-0.019225096,-0.0040509934,0.0017832804,-0.03141447,0.04906941
103,-0.00020973204,-0.009815969,1.158248e-05,0.012414564,-0.0033112823
104,0.0075728097,0.005294129,0.0005887239,1.23777045e-05,0.028136391
105,0.036309868,0.015406114,5.9288355e-05,0.022348918,-0.016993685
106,-0.01998727,0.010110346,-0.0028137981,-0.0011744173,-0.06949228
107,0.008934428,0.0014077888,-0.003101993,0.021665312,-0.060965385
108,0.05562032,-0.0024707075,0.035405893,-0.007272619,-0.05349957
109,0.01467967,0.0030846477,0.008640965,-0.038308498,0.018254
110,0.0026911437,0.0017090141,0.0025786972,-0.05342498,-0.03125754
111,-0.00055494014,0.006219576,-0.035631444,-8.054832e-05,0.030471204
112,0.034519386,-0.018241515,0.0025995588,0.020126464,0.06799796
113,0.0535457,0.0005322054,-0.004373882,0.027890109,0.06954858
114,-0.0005070642,0.0033352494,0.0025750916,-0.050631877,-0.060224198
115,0.03464113,-0.00020491058,0.008747332,0.00014141873,0.02092276
116,0.0022270065,0.0063785436,-0.023843935,-0.03482049,-0.07752497
117,-0.00017303394,-0.0020727175,0.004557549,0.04867844,0.048804328
118,-0.04036368,-0.009350727,0.004542268,0.037713245,-0.06120547
119,0.02577357,-0.005589548,-0.0021585838,9.540544e-05,0.036891077
120,-0.025803093,-0.006583708,0.0011189763,-0.019077623,-0.07618386
121,-0.025893264,0.0047107902,-0.0040970957,0.00020196098,-0.0060993154
122,-0.015662324,-0.010702985,0.0013027552,-0.053791467,-0.043105245
123,-0.019137286,-0.017098716,0.00053986633,-0.00026628436,0.00077374984
124,0.04291716,-0.0064956467,0.003952922,0.06793354,0.049533624
125,-0.05476542,0.0024439886,-0.004303002,-0.032303553,-0.06574654
126,9.991118e-05,0.009670902,-0.03083407,-0.05154355,0.07157108
127,0.02812813,0.004411478,0.0020578864,-0.015742218,-0.0070892842
128,5.6503202e-05,0.0049396344,0.04169096,-2.4508965e-05,-0.08523767
129,0.001549688,-0.018426877,-0.0018622844,0.0033707693,0.024918878
130,0.013410083,0.0012944989,-0.0024715373,0.05166819,-0.05115274
131,-0.029798232,-0.010510066,0.0025143386,0.058588237,0.01662759
132,-5.301453e-05,-0.0076264017,-0.0008360942,0.00059850514,0.024004303
133,-0.008208186,0.015360322,0.0017477599,0.008153268,-0.050963983
134,0.00050595775,0.00648873,0.035211567,0.0023147461,0.010427819
135,0.040515143,0.0008459193,-0.021256087,-0.044959135,-0.06705852
136,0.042840943,-0.004013301,-0.0012222528,-0.031141037,-0.0540226
137,0.0010557843,-0.015468471,-0.0022982615,-0.052815385,0.015946776
138,-0.056400575,-0.0037683796,-0.03543039,0.0007879192,0.009998436
139,-0.037273526,0.0031182657,0.034905806,0.0009793849,-0.038684078
140,0.013562558,0.0015471078,-0.0036600288,-0.049926296,0.0048510768
141,-0.00066081417,0.010650633,-0.0011953455,0.00534588,0.04025047
142,-0.00730435,-0.00031482519,-0.034750678,-0.044051427,0.042415347
143,0.00068221975,0.018963717,0.007338522,0.06444746,0.027639465
144,0.02327825,0.0015871888,-0.0045213797,-0.019588798,-0.046608184
145,0.02587639,0.0032623976,-0.0028034693,-0.007528253,-0.0606976
146,0.03746699,0.010907192,-0.0007394925,-0.039340638,-0.0415264
147,0.034753904,0.0041320943,-0.00029544384,0.046194505,0.0460341
148,-0.04862228,0.009976247,0.00092127325,5.9338e-05,0.027972868
149,-0.0016534919,0.00033850857,-0.0028617494,0.004649394,-0.0017613847
150,0.0051770653,0.015735913,-0.0005792994,-0.022804657,-0.05512317
151,-0.0009741715,0.0004454432,0.00036001345,-0.0017019775,-0.005766022
152,0.05102235,-0.009584377,-0.0034347954,0.053592384,0.038964175
153,-0.048869062,0.00012525021,-0.00407652,0.00086089445,0.012451323
154,0.04297905,0.006303941,-0.0014917251,-0.010004722,-0.02355387
155,0.03919,0.015363264,-0.0020041633,0.016245263,-0.043474045
156,0.0010967129,0.002700368,-0.0021077413,0.060380336,-0.008401363
157,-0.048751447,0.016136963,-0.0019098158,-0.05888055,0.0070535517
158,0.0031741245,-9.2353854e-05,0.003229198,0.00040865305,0.0510759
159,-0.024037505,0.0037628165,0.002171469,-0.0377258,-0.015018823
160,0.0005640417,0.00010548108,3.3622317e-05,-0.05346498,-0.0018607759
161,0.013699859,0.009096575,-0.003094053,0.0044977227,0.06530414
162,-0.04949676,0.0025332638,-0.0038126777,0.025927512,0.06678132
163,0.0011423393,0.01301631,0.00035681194,0.0007366449,-0.05653554
164,-0.032127142,0.0065885303,0.038453653,0.000423504,0.000651871
165,-0.038332075,0.01566144,0.00014506394,-0.00016857019,-0.02691473
166,0.021153709,0.0036798615,-0.0031497525,0.0568811,-0.016346935
167,0.0015909438,0.0045169313,0.0033243455,0.029216483,0.028820943
168,0.00076570845,-0.0081704315,0.002073814,0.009687045,-0.010413675
169,0.0005159277,-0.004040009,-0.0019508387,0.00015692422,0.02262633
170,-0.0020773446,-0.019746462,-0.0052010524,-0.041879088,0.06486139
171,-0.0307579,-0.0017327202,0.0021472557,-0.021216309,0.023539292
172,-0.020275138,-0.007935287,-0.0012890993,0.0003268661,0.0048336214
173,0.056720328,-0.00050664734,-7.061339e-05,-0.033615135,0.0038241602
174,-0.016437875,0.0129330065,0.0005141153,-0.00035623965,0.039441098
175,0.0006672204,-0.019455547,0.0028562977,0.058716383,0.02307986
176,-0.03910134,-0.006139275,-0.003730089,0.030948844,-0.0020422612
177,0.04553463,0.0046426086,0.00031746415,-0.059727162,-0.004238029
178,-0.0035257833,0.0056741415,-0.0032166506,0.02998139,-0.042267922
179,-0.018881518,0.0032963236,-0.0009805174,0.026889673,-0.027055053
180,0.060514353,-0.0026688688,0.00033732658,0.033467576,-0.053968195
181,0.00021419046,0.018556587,-0.001314483,0.006132343,0.042564884
182,-0.012937533,0.0004164336,0.0040509207,-0.008596553,-0.029116282
183,-0.048842534,0.005824936,-0.0010801178,-0.050058547,-0.019324334
184,-0.05179821,-0.0033924012,0.0035402253,0.03284017,-0.06887265
185,-0.024519414,0.015544952,-0.0025308,0.06353201,0.00012593369
186,0.051426735,-0.015523235,0.04213057,-0.032194745,-0.05464996
187,-0.058123272,-0.0005310976,0.004105903,0.020937799,-0.021342894
188,-0.049714316,0.0005398565,0.0026159505,-0.012830794,0.016047688
189,-0.013169407,-0.0042299647,0.0039775046,0.040874746,-0.030168938
190,-0.009716504,-0.0002868034,-0.000503299,-0.00024239639,-0.023704482
191,0.012290409,-0.0016115698,-0.0031161348,0.063448794,-0.051500965
192,0.039046206,-0.01586253,0.004035885,-0.00109557,0.046471708
193,0.0015290525,-0.0067517664,-0.0038095228,0.00094567216,0.0048322077
194,0.0044679167,0.0008157292,-0.0019405552,-0.00024387422,-0.059432138
195,0.0125912465,0.0067625046,-0.0025476264,-0.019741105,-0.023049818
196,-0.024553448,-0.0009731019,0.004121361,-0.046341605,-0.083159976
197,-0.00023224924,-0.014570543,0.0012262274,-0.00033742972,0.020221792
198,-0.01833697,0.0040777787,0.035045236,0.06254902,0.06767984
199,-0.00049157394,0.011449799,-0.0019454351,0.0007861253,-0.07529071
200,-0.05615439,-0.0036212686,0.0021705513,0.06474328,0.07323003
201,-0.024656828,-0.00550431,-0.0013510118,-0.0002797775,-0.020010808
202,-0.01781394,-0.0007788565,-0.0055480725,-0.008515515,-0.07054129
203,-0.0006488135,-0.0003335775,-0.00050036854,-0.022927348,0.06430562
204,-0.042500425,-0.0052693323,0.004635864,0.033373557,-0.06709589
205,-0.055212043,-0.0023765005,-0.043083724,0.04998491,-0.05326645
206,0.00011418094,-0.00017174815,-0.0019509711,-0.04713004,0.009956824
207,0.029673768,-0.008707021,-0.0015492922,-0.040869992,0.06697753
208,0.0013167684,-0.0012488363,-0.0018784251,0.00091656944,-0.018827979
209,0.029929312,0.0050860406,0.0015432409,0.043323055,-0.0640841
210,0.016111705,0.00040505172,-0.003067932,-0.00026334266,0.004891113
211,-0.0074607916,0.00968628,0.023926064,0.0537745,-0.07715549
212,-0.0011568799,-0.0039479486,0.0025395057,-0.057357434,0.061293807
213,0.051636126,-0.008198517,0.028088704,-0.00023305074,0.083305605
214,0.030255683,0.00730452,0.0027469988,-0.0010650306,0.0073790275
215,0.00032459927,0.00044840906,-0.00076103787,0.037208226,0.07168921
216,0.061626125,0.0052379775,0.0023449224,0.0265307,0.01842188
217,-0.056594748,-0.0076931957,-0.0013085557,-0.06397494,-0.0462702
218,-0.027835911,0.0013038081,-0.0020988965,-0.008872514,-0.07316843
219,0.04450884,0.0053312927,-0.0046983105,0.06331942,-0.05092909
220,0.061521087,-0.0004609376,0.00069122633,0.0010590828,0.0138246445
221,-0.050436806,-0.0017262126,-0.002820644,-0.014684217,0.025409376
222,-0.0019200618,0.0036500855,-0.0018832431,0.00075786246,-0.06240004
223,-0.030837122,-0.0028497924,-0.006047887,0.0637189,0.02210929
224,0.019909482,0.008470676,-0.011577734,0.068351425,0.08435755
225,-0.0007747605,-0.0018220466,0.0046820063,-0.00030292064,-0.007363427
226,-0.05399055,-0.00018084703,-0.03471901,-0.060860083,-0.026416453
227,0.05013188,-0.00031163864,0.0010282578,-0.062416326,-0.056648694
228,0.013598611,0.0020962085,0.0068735597,0.059952587,-0.07159281
229,-0.0011671921,0.0006757508,0.0041335323,0.010030096,-0.06598539
230,0.051638853,0.009040766,0.0056914203,-0.02426366,-0.0826898
231,-0.0005003952,0.015336038,-0.0016647244,0.04309228,-0.0064868666
232,0.03382388,0.00097434584,-0.002165085,0.00043316727,0.08010028
233,-0.0006976005,-0.008970216,-0.00050201325,-0.03395308,0.019024307
234,-0.02415986,-0.0042006937,0.0030485038,-0.028518764,0.026883556
235,-0.0008066529,-0.001862587,0.0012513462,-0.026998837,0.07214823
236,-0.00046246426,-0.0052552815,-0.031550996,-0.0007812939,0.034927573
237,0.013503794,0.003599519,0.0030539325,-0.0075738616,0.04751762
238,-0.025056547,-0.002575084,0.00052975584,0.00015351166,0.08039867
239,-0.002977179,0.008589048,-0.0011090296,0.03411944,-0.023782589
240,0.0036922975,-0.00442039,-0.0009886973,0.019549321,-0.0067325067
241,0.0006928308,0.004544158,0.003961531,0.06270728,0.041548904
242,0.005717919,0.00028077597,0.0017738859,-3.080676e-05,0.008178316
243,-0.014725458,-0.0028261486,-0.0025061,-0.016699191,-0.049103614
244,-0.049558014,-0.001125454,0.0026472262,0.03765522,0.05004686
245,0.023707485,0.007828439,0.03944651,-0.048790105,-0.012162386
246,-0.0049415226,-0.0001833965,0.0024323147,-0.00045968266,0.025572523
247,-0.012446776,-0.00086921256,-0.0031769993,-0.024296455,-0.01254709
248,-0.054907765,0.0031224156,-0.0032191807,0.058771104,-0.03239774
249,0.023936884,-0.00585708,0.004689724,-0.00034131572,-0.043911606
250,-0.03302592,-0.015423421,-0.0025147747,0.053499408,0.030034024
251,0.038290262,0.007838756,-0.034983814,-0.015907163,-0.017427731
252,0.044528503,0.0019770819,0.003968324,4.8508446e-05,-0.047095206
253,-0.06156215,0.019810671,0.03460208,0.063059576,0.05998802
254,-0.031032605,0.0006351724,0.0003898474,0.009972681,-0.00027590196
255,-0.035371352,0.0066013113,0.001571916,-0.043544978,0.07483813
256,-0.03770176,-0.010262903,0.035991047,0.0222158,-0.04878051
257,0.017408079,0.0012776752,-0.0030795778,-0.00093724066,0.0008903417
258,0.055345904,0.0015376772,0.0031980781,0.024501706,-0.022076115
259,-0.029372053,0.007947901,0.035361912,0.051713664,-0.051368132
260,0.01274792,0.021839192,0.0018489197,0.04340868,0.06726427
261,-0.0021718568,-0.0012696902,-3.0592528e-05,0.014462025,0.012678064
262,-0.004455994,-0.0076010334,0.002304445,-0.030131878,0.056764882
263,0.0025361665,0.005362257,-0.0026831036,-0.041676085,-0.055367377
264,0.011075429,0.007707973,-0.0024409331,0.008844949,0.00031688082
265,0.032032523,-0.0007507347,-0.00014435829,0.002474431,0.0064849295
266,-0.003587565,-0.0016194383,0.004726092,-0.06160825,-0.07211967
267,-0.002392814,0.00430912,0.003203564,-0.021427633,0.035227213
268,-0.05405809,0.0041828337,0.002005869,0.0002976534,0.01231381
269,-0.0023033354,0.003407911,-0.0031386842,0.004144373,0.02726186
270,0.026577009,-0.0003857889,-0.0016591651,0.058119144,-0.0461159
271,-0.0012629849,0.018930262,-0.0022180716,-0.057582363,0.02182192
272,-0.037869867,-0.018144777,-0.00072252203,0.052577406,-0.07771297
273,0.0011214563,0.0029079814,-0.0025035243,0.00044980945,-0.017615112
274,-0.00066353887,0.011364306,0.0011470744,-0.04401559,0.07061175
275,0.0022892049,-0.019750113,-0.004378433,-0.0005312285,0.027896706
276,0.031757973,-0.0030479284,0.004185022,0.00020357053,0.016759947
277,-0.0035112232,-0.0035195884,-0.003819624,-0.06042347,0.022993712
278,0.00060308125,0.005380552,-0.0027879279,-0.0499155,-0.018480731
279,0.046581168,0.0029633953,-0.004253098,-0.037480652,0.010808764
280,-0.010397293,-0.00055094005,-0.0023012632,-0.00029703075,0.07202089
281,-0.00017448772,0.002738259,-0.035312615,4.4113796e-05,-0.072483696
282,-0.010127685,0.0006312971,0.011229874,-0.049543962,-0.0020849274
283,0.0006420302,0.008902605,-0.0024326406,0.06733844,0.018496836
284,-0.0006985238,0.016486766,0.02576785,0.0031749827,0.036106452
285,-0.00061605545,-0.00044939228,-0.0003258071,-0.05748039,0.033019755
286,-0.0010109977,0.005847591,0.0025300859,-0.06656638,-0.05437148
287,-0.013186815,-0.00081476587,0.00043879214,0.063918166,-0.016904164
288,-0.0072488035,0.012279657,-0.001080662,-0.048785023,0.06273325
289,-0.0020659266,-0.0022034596,0.0009877555,-0.056710195,0.072886385
290,-0.056916606,0.0029107078,0.004562755,0.028858762,0.049442086
291,-4.912388e-06,-0.0049790503,-0.004279631,-0.010107797,-0.0003486338
292,0.02834763,0.0045194705,0.0014936982,0.03089293,-0.03905023
293,0.0017025818,0.0014595536,0.0042860014,-0.00029367759,0.057177175
294,0.039595947,-0.0006149094,0.0012313011,-0.023322381,0.054262016
295,0.030828642,-0.00036753737,-0.0004135788,0.037435923,0.03913076
296,-0.0030444774,-0.0002014187,0.003930235,-0.042027824,0.069624074
297,0.018403387,-0.0060742917,0.00020641446,-0.011290007,0.061224755
298,0.0011525033,0.00943808,0.0030403598,-0.028484354,0.069099106
299,0.0011297849,0.0033555012,0.03476084,-0.008086744,0.030414483
300,0.0020315158,-0.005745246,0.0011395146,0.02620904,0.0190503
301,-0.006779713,-0.0154400505,-0.004289151,0.0015230428,-0.045019977
302,-0.03460123,-0.0024477018,-0.004578725,-0.047399674,0.01804542
303,0.061919652,0.017390564,0.0031837646,-0.057201467,0.0022025807
304,0.027761227,0.006503322,0.0029521128,-0.0016247969,-0.07386454
305,-0.0072171073,0.005308286,0.0038598597,-0.05026476,0.024858285
306,-0.0026665202,-0.0049037845,-0.00010728857,0.01823942,0.037443414
307,-0.050769437,-0.0019175694,-0.00031686964,0.019527568,0.055882804
308,-0.0017121737,-0.00012103863,-0.004453321,-0.0001336918,0.059111293
309,0.02417081,-0.010225907,0.008506854,-0.037612516,-0.02141689
310,0.052422676,-0.002189151,-0.0012551136,-0.0010543265,0.025456479
311,-0.06194972,0.0011296311,-0.00092488213,-0.0058687935,0.05040102
312,-0.037552685,-0.015428882,0.0058589494,-0.053304173,0.069115065
313,0.0535748,-0.00014983104,-0.002211872,-0.029518304,0.062705
314,1.5547031e-06,-0.00018687894,-0.0028101476,-0.008728277,0.012345427
315,-0.0011573541,-0.0006194536,-0.0009880406,-0.00023257901,0.029904347
316,0.049720738,0.0054137874,0.0033233406,0.00022279308,-0.07417726
317,-0.054340538,-0.004855505,-0.0030534056,-0.04322357,0.05108527
318,0.03869483,-0.0034543737,-0.0016342216,0.06211077,0.031233793
319,-0.00035830837,-0.01864862,0.0020851183,0.01999167,-0.007937891
320,-0.012412325,-0.0033813023,-0.0055187293,-0.06430587,0.044737823
321,0.0006599405,-0.0005541411,-0.0013522804,-0.00055499404,0.02567468
322,-0.0011171437,-0.003463962,7.424606e-05,0.023576222,0.014055322
323,-0.00030850354,-0.013966754,0.0044583236,-0.045937255,-0.06554505
324,0.01033286,-0.0023141522,-0.0051411316,-0.03760243,0.004698583
325,0.0048397062,-0.003852238,0.000853889,-0.0010657726,-0.0020989191
326,0.0072407187,0.0009141,0.002814463,0.01844021,0.03344707
327,0.03553468,0.0045463066,-0.0003461108,-0.035767715,0.03420629
328,0.02253842,-0.005766871,-0.00090446183,-0.0034608017,0.018755017
329,-1.601878e-05,0.017089507,-0.01624664,0.013913612,0.02735924
330,0.0035118826,0.0002876809,-0.0040132254,-0.037808105,0.058830354
331,0.0001567089,0.0011465086,-0.0021280693,-0.01823011,-0.050421793
332,0.0011193091,0.0028927375,-0.0039910995,0.027482504,0.075112365
333,-0.0016876546,-0.009360088,-0.00030190128,0.0133792665,-0.022998026
334,-0.05321009,-0.0022763554,7.5788805e-05,-0.0075099114,0.04045954
335,0.060734585,0.0063518584,0.002009296,0.038386915,0.060993716
336,0.03239539,0.00021168176,-0.0033508684,-0.047797594,0.050159756
337,0.038283646,-0.0009022538,-0.0065489477,0.031761795,0.057724994
338,0.05614268,-0.018570326,-0.0011098102,0.06175328,0.053595997
339,0.052150637,-0.0041256086,0.008856856,0.010506785,-0.04971497
340,0.0007817932,0.0051758145,-0.00014368228,0.030129015,0.07487916
341,0.00070451805,-0.017243471,0.0015022794,-0.0069374936,0.033088222
342,-0.019869259,0.0036751744,0.0008325105,-0.015878448,0.083724916
343,0.040595725,0.0016878505,-0.0044832057,-0.00038794067,0.059940387
344,0.060289927,0.0015862529,0.0055516516,0.0003353828,0.041229393
345,-0.011538935,0.002806974,-0.0073880833,-0.012698689,-0.053380616
346,0.010320936,0.0009072714,0.0014957723,-0.0007861019,0.04166176
347,0.012002347,-0.0036782385,0.0002818653,-0.009689943,-0.060626313
348,0.0078595495,0.019035583,-0.0006599794,0.040404484,0.08492302
349,-0.030910527,0.002029766,-0.0016661774,0.05454844,0.073576294
350,-0.057942938,0.002278399,0.00372466,0.02517978,0.057459697
351,-0.044435,-0.010110119,0.0029028903,-0.057392623,-0.06906599
352,0.051209327,-0.0029172527,0.0012695524,0.0008231974,-0.06238315
353,-0.00019902985,-0.008950626,0.0029245554,-0.031072766,0.00060045964
354,-0.0005319121,0.00038340772,0.00053891714,0.05570203,-0.0589178
355,0.040775713,0.0014994302,-0.0082889255,0.003291574,0.019983986
356,0.050546385,0.0029782078,-0.0010270092,-0.027969262,-0.04794186
357,0.009722758,-0.0003209651,0.0015251422,-0.023124546,0.01033352
358,0.048260696,0.015907766,-0.0076021156,0.035751197,-0.01666596
359,-0.00949057,6.628707e-05,-0.0014151245,-0.04221488,-0.054790426
360,3.367448e-05,0.0008913491,-0.0035820398,-0.00011749638,0.020590523
361,-0.04550701,-0.0009847233,-0.0004258045,-0.04247212,-0.025049066
362,0.0010695719,-0.00015752732,-0.0004132785,-0.019144602,0.03745131
363,-0.0025651418,-0.0004954704,-0.0020138933,-0.00041933995,0.00055709033
364,0.015337734,0.01701168,-0.03483294,-0.051867127,0.06263297
365,-0.055703804,-0.000571559,0.0033044948,-0.007113308,-0.014989683
366,0.05597169,-0.006160404,-0.0005961382,-0.00077355455,0.06518589
367,0.0010926798,0.0017935301,0.003941407,-0.0017361459,0.009589451
368,0.00018329395,0.0014901792,-0.042194404,-0.0566044,-0.029868798
369,-0.013081243,-0.00096267037,0.005391629,0.060284715,0.07932223
370,0.04485241,0.0021496154,-5.426381e-05,0.019325683,-0.052977167
371,0.044681277,0.009277355,-0.0021470222,-0.050133307,0.045112472
372,-0.0024622283,0.0011250969,0.0012628301,-0.055058543,0.018265372
373,-0.0013062384,-0.01141245,-0.02475145,-0.028584905,0.03452985
374,-0.05457683,0.0044286507,0.0036382924,0.047635484,-0.019103229
375,3.2564687e-05,0.0010101477,0.034977105,-0.000839452,-0.06577879
376,0.05122699,-0.0016431999,0.0042419736,0.05341419,-0.05566286
377,0.001983083,0.0024753015,-0.0021798045,0.04340205,-0.002104528
378,0.035754304,0.0054669296,-0.0012833123,0.010491127,0.0060069505
379,-0.043998413,0.0005698949,-0.0031177078,0.044130176,0.06785603
380,-0.00020137386,-0.010520018,-0.0012070604,-2.1659247e-05,-0.0010326486
381,-0.023812853,0.000589315,0.0017822213,-0.0004713924,-0.04385918
382,-0.005820691,0.0058433814,-0.0050592506,-0.00034536465,-0.05118071
383,-0.0011551603,0.003599788,0.0078196395,0.010716173,0.03577303
384,0.03249046,0.015563768,0.0033929113,-0.059392758,0.002915868
385,6.990857e-05,-0.008931049,0.0027383794,0.015176137,-0.024477607
386,0.0625686,0.008471759,0.00015873481,-0.03327992,-0.07766859
387,0.0021601743,0.0032744436,0.003105483,0.06489212,-0.07727183
388,0.05703199,0.0027641968,0.035711452,-0.013870957,0.0061373943
389,0.04626433,0.0022895618,-0.00060114963,-0.06028395,-0.038645223
390,0.044305287,-0.0024031617,-0.0023783986,-0.025733428,0.0025952812
391,0.04274114,0.008592224,0.0011342741,-0.0010488649,-0.024602106
392,0.03745637,0.0010403782,0.0033360138,0.00045272667,0.07495292
393,-0.013954882,-0.0050103585,-0.00042126578,-0.04634994,0.022622334
394,0.0013396277,0.003197378,0.0027233504,-0.04607557,0.024502324
395,-0.048779536,-0.000689465,0.0030296573,-5.2400195e-05,0.020306692
396,-0.03995558,-0.0013426899,-0.003281846,0.002077541,-0.015965657
397,-0.019573692,-0.0009834811,-0.0064701415,-0.01657142,0.0656339
398,0.022879882,-0.008349031,-0.00046124397,-0.033291392,-0.04435572
399,0.03032286,0.00040231057,0.001401353,-0.01892552,0.064608544
400,-0.0013109682,-0.000119860655,-0.034649435,0.00051670085,0.0012721347
401,0.04700881,-0.001090941,-0.0032032283,-0.009543226,-0.039071266
402,0.029051961,0.00016875082,-0.0022519683,0.059167974,-0.04940559
403,-0.013951604,0.014852008,0.003106983,0.050931852,-0.0076744445
404,-0.0053679114,5.826114e-05,0.0028473435,0.035977542,0.07829315
405,0.017728886,-0.0011464928,0.0022761715,0.058380682,0.033924203
406,0.06147717,0.0008904012,-0.003625964,0.00036280515,-0.058639728
407,-0.000105568404,-0.015801629,0.003833475,-0.043703817,-0.056400057
408,0.038440842,-0.015393836,0.0009929145,-0.0012784577,-0.0064902273
409,-0.0012464655,0.0044980845,-0.00055311015,-0.00040756818,-0.0042450316
410,-0.0050108717,0.00040479354,0.001951101,-0.04650581,-0.015237747
411,0.0483908,-0.0031794386,0.03467831,-0.0020549765,-0.035221405
412,-0.019879097,-0.006137399,0.0029541065,-0.039052375,0.02547909
413,0.041535452,0.014973232,0.0023414171,0.016627083,0.02858737
414,-0.039504774,-0.013888595,0.024704399,0.03851271,0.032647222
415,-0.019588491,0.009284694,0.0017640747,-0.00024608895,-0.07533122
416,-0.015967937,-0.0024981296,-0.0005034074,0.036632404,0.05362789
417,0.048455745,-0.0019301334,0.0022861264,0.0090760505,0.009716445
418,0.0003041769,-0.013033833,-0.0039097755,0.049160134,-0.0022931139
419,-0.048947524,-0.015085281,-0.00047744543,-0.0022771365,0.0025937783
420,-0.018195838,-0.002897691,-0.017326098,0.052719075,0.048197437
421,0.052665282,0.0051949634,-0.00085766043,-0.013180583,0.06812693
422,-0.050877124,0.0013234839,0.005230005,0.043190338,-0.009281637
423,0.0012350862,-0.0074785617,-0.0017368081,0.05694629,0.012149385
424,0.0012432544,-0.014727897,-0.03452906,0.043678857,0.012302941
425,0.05223353,0.0032995536,-0.0013467526,-0.014973635,-0.049539503
426,-0.00027232282,-0.0014491567,-0.00013905318,0.000643623,-0.07568163
427,0.002076985,0.0013662783,0.035318304,0.0364551,-0.055942357
428,0.00026407492,0.0010437414,0.003253105,-0.033456907,0.017830804
429,-0.0043689287,0.0019577888,0.03451507,-0.059787814,-0.039535474
430,0.0015306108,0.0017332189,-0.0020688,0.00012185128,-0.038788997
431,-0.033832807,-0.0013456001,0.0027675885,-0.019292252,0.058480967
432,0.00015252488,-0.0016778058,-0.0039805365,0.00027515026,0.012082579
433,-0.038498428,-0.0070317853,-0.03515825,0.027337003,-0.030052029
434,-0.014117198,-0.010305252,-0.0019929765,-0.025418486,-0.052992865
435,0.00079505943,0.0002196279,-0.000317397,-0.0039277375,-0.002778983
436,-0.004151951,0.003304391,-0.0071504717,0.047322962,-0.043214988
437,0.017485553,0.00080232514,0.0008201414,0.061124526,0.00042469142
438,0.00012044163,-0.0083358735,4.9593236e-05,0.0482444,-0.061195128
439,8.997684e-05,0.017727045,0.0026378336,-1.8827519e-05,-0.0005331806
440,0.027110856,0.0013371935,0.0005035921,0.016975982,0.076761454
441,-0.000100153455,-0.00074243,-0.00034038702,-0.060702175,0.067757085
442,0.0023300862,0.00037331186,-0.0026947116,0.046653572,-0.013823262
443,-0.06208287,-0.0095104305,0.00046538792,-0.034220647,0.050183613
444,-0.052444864,0.0035414025,-0.00044782629,-0.015011414,-0.046168428
445,0.00067014433,0.0072500897,0.0010973908,0.055636924,-0.02722202
446,0.02845342,0.0105485,0.00027964325,5.0298644e-05,-0.084920175
447,-0.032514267,0.007584141,0.0029683698,0.026300533,0.08108018
448,-0.046423893,-0.0037715833,0.0047012377,0.060882714,-0.06151024
449,-0.02252153,-0.0023129247,0.0016169207,-0.06596039,0.07656456
450,-0.00032482977,0.0020656504,-0.0007603714,0.043101903,0.0071996236
451,-0.048214298,-0.0028888222,-0.005052578,-0.002440086,-0.03423795
452,-0.062370975,-0.015737357,0.0019263141,-0.03283755,-0.040211163
453,0.061665382,-0.00544523,-0.0034014217,-0.04573022,-0.0038735776
454,-0.034548044,0.020081041,-0.0014100722,-0.015731938,-0.028668452
455,0.04934868,0.0054172687,0.0051817587,-0.004147643,0.029433846
456,-0.01884534,0.00066748296,0.002103875,0.042148832,-0.046899147
457,6.8963214e-05,0.0073712235,-0.0029176224,0.05137767,0.043557588
458,-0.0012344318,0.0070991567,0.0008837535,-0.042740583,0.037896723
459,-0.0009561496,0.0005498307,0.0034982644,6.517128e-05,-0.0067835264
460,-0.00024753922,0.01829257,-0.04067636,-0.0002724519,-0.052133992
461,-0.013233315,-0.0070504397,-0.0046885656,0.03981956,0.026452728
462,-0.001299995,-0.00048807627,0.0030672553,-0.000113151735,0.032356743
463,-0.0072385855,-0.00042734444,-0.0024353913,-0.0019626243,0.053436346
464,0.0312522,0.00045619725,0.00080277195,-0.011528379,-0.054699305
465,0.050301276,-0.0024676858,-0.035670057,-0.00021523208,-0.005530574
466,-0.048143912,0.021778625,0.004230689,-0.010659663,0.037840735
467,0.008548122,0.0013215852,0.00042955758,-0.000409026,-0.059800476
468,0.043718357,-0.0052967174,-0.0039196964,0.004682374,-0.06495578
469,0.057773843,0.0014208454,0.00049355475,-7.412013e-05,0.023729822
470,0.0002757658,-0.010633222,0.0021506576,0.0003970652,-0.033438224
471,0.020736622,0.0024937256,-0.0028191472,0.006453503,-0.012034433
472,-0.00034820073,-0.0007154593,0.00088530383,-0.00042328355,0.03793983
473,0.035440948,0.0005472654,-0.0005860584,-0.026414625,0.000674756
474,0.0010628065,0.0026166143,0.0038067496,-0.01209143,-0.0036222455
475,0.0007814085,-0.014701018,0.0017224285,0.045489296,-0.01665941
476,-0.026448807,-0.002652614,-0.0039731525,-0.056900166,0.010888487
477,0.012589631,-0.0022683486,0.007429723,0.023357054,0.032858845
478,-0.043843668,-0.0028049788,0.0021971688,0.026157785,-0.06465706
479,-0.030698791,-0.0024484147,0.0013630395,-0.04231363,-0.022937244
480,-0.040658697,0.0003964539,0.0035266178,0.0057984665,-0.008932678
481,5.2902065e-05,-0.00097485277,-0.003993242,0.029348047,0.0030209518
482,-0.032659892,-0.00037322758,0.0031603936,0.055075567,-0.06260271
483,-0.04404438,0.005646703,-0.0011789151,-0.03763462,0.059490167
484,0.036807448,0.0024389056,0.00087336346,0.0058990405,0.061762225
485,0.012574213,-0.0012303349,0.0015781608,-0.030495057,0.079883255
486,-0.033622965,0.014869093,-0.035036653,-0.055057015,-0.07358498
487,-0.035863306,0.0018509349,-0.00038707274,-0.04067932,-0.07822944
488,-0.0015484715,0.00014089371,-0.003951031,0.0011436954,-0.068740256
489,0.007280133,0.008696306,0.0028588804,-0.04924828,-0.027011193
490,0.0009984999,0.001921342,-0.0015959898,0.022454638,-0.028915923
491,0.053614315,0.0038399105,0.013521928,0.0011357989,0.0059023495
492,-0.0017959187,0.009719384,-0.0023731517,-0.00011005619,0.06100507
493,-0.03867631,-0.0062265163,0.015516556,-0.00030683848,0.033659294
494,-0.0007245265,0.0052715214,0.0017623245,-0.0076015154,-0.01828148
495,-0.0010511394,-0.003056772,0.0029454539,0.014545922,0.014534098
496,-0.04790448,0.0070712944,0.0017205211,0.00029232923,0.00426699
497,0.002102428,-0.0007175279,-0.00016845512,-0.008321804,-0.00011566182
498,-0.021229677,-0.0019345271,-0.0047610546,-0.051070925,-0.004008711
499,0.004278011,0.00010170216,-0.00467247,-0.0002246448,0.006784819
500,-0.000121124656,-0.006862543,-0.00042264332,0.044832047,-0.07269415
501,0.046412375,-0.0034658706,0.0001332988,-0.00012779915,-0.0058145127
502,-0.05481532,0.00038269538,-0.0031108249,0.00046978792,0.011124551
503,-0.025343932,0.00945904,-0.0031745888,3.9370225e-05,-0.027176313
504,0.03229298,0.0011299347,0.0004332449,-0.015196489,-0.0063308366
505,0.010842154,-0.01594142,0.0018502481,-0.0001704789,-0.023226947
506,-0.035869487,0.005805231,0.0028087504,0.00049691356,-0.083934404
507,-0.04146034,-0.002524337,-0.0004907089,0.052818164,-0.085328065
508,-0.018208163,-0.0029502078,0.00082007557,0.012853282,0.06741756
509,0.004961617,-0.002133343,-0.0033777624,-0.042003747,-0.003765974
510,-0.05857677,-0.0015456446,-0.0019041895,0.046710037,-0.0010805053
511,0.03512483,-0.0038076267,-0.0032893044,0.047827918,0.060226455
512,-0.04153438,-0.0070224325,0.001240598,-0.058240335,-0.0067362315
513,-0.00041847568,0.015834332,0.0008015352,0.016742157,0.022990838
514,0.04803923,0.006775274,-0.0050828373,-0.041853577,0.017472114
515,0.045321114,-0.007816755,-0.0005451821,-0.013356011,-0.07346236
516,-0.0011031802,-0.004553133,-0.035279635,-0.008374557,-0.083360486
517,0.036560077,-0.010041566,0.0013836935,-0.0068356753,-0.033453494
518,0.0011586733,-0.00084540684,0.0023363722,0.00024621756,0.017153768
519,0.05078719,0.0044494444,0.017206352,-0.04834757,-0.05040467
520,-0.0056993775,-0.015114989,-0.0075393734,0.00053978455,-0.037527375
521,0.002551731,-0.008666802,0.00037685107,0.0055211587,-0.019767614
522,0.0006410531,0.00030747888,0.0008553406,-0.0009971391,0.020956835
523,-0.0007345217,0.0150671415,-0.0011992374,-0.040336493,-0.000735265
524,-0.031017367,0.0030393526,0.001449845,-0.065348834,-0.035733905
525,0.058524724,-0.00351982,0.0015693298,-0.020535938,-0.07703166
526,0.012524283,-0.004250227,-0.002848078,2.8163424e-05,-0.00043704538
527,-0.0002013461,-0.016886203,-0.0015072864,-0.022293624,0.037865706
528,0.014297964,-0.003074988,0.0004333151,-0.012412917,0.033450533
529,-0.02817885,-0.015363699,-0.0020536555,-0.00040480917,0.021762656
530,-0.00071316137,-0.012436614,-0.0023171627,0.011134791,0.04337607
531,0.032458745,-0.0011255282,0.03897603,0.004044426,0.06342968
532,0.04380855,0.0013890879,-0.0007142953,0.05605897,0.00044267977
533,-0.004917393,0.0015960245,0.024056397,-0.061813466,0.05889763
534,0.0069546676,0.0032346966,-0.0035253158,0.001209942,-0.041212656
535,0.00055480923,-0.015110381,-0.005013802,0.04060716,0.0273235
536,-0.036399454,0.0009420461,0.0023691573,0.000294077,0.0051400745
537,0.028240332,-0.001222484,0.00046549935,-0.018114738,0.034626022
538,-0.0027261635,-0.0019388429,-0.003716601,0.00022630706,0.039518755
539,-0.00031338714,5.0839313e-05,-0.04340899,-0.044148464,0.023848597
540,0.0005385667,-0.00018075996,-0.0029660494,-0.043305364,-0.021691078
541,0.023926927,0.005508694,-0.0045314333,0.0006048884,-0.033996888
542,8.450875e-05,-0.0005419987,0.0010829169,-0.00042221622,-0.018709611
543,0.00038683048,0.015058484,0.0012314983,-0.00039089733,0.027407164
544,-5.516971e-05,0.0065504075,-0.008187937,0.043227945,0.024444131
545,-0.008433162,-0.0011433662,-0.001852704,-0.03743938,-0.041576695
546,-0.06285994,-0.0030053738,-0.03845056,-0.034163095,0.015120634
547,-0.0013156037,-0.003673085,-0.000631421,0.049455035,0.059578124
548,0.029501198,-0.008761503,0.001203891,0.0002764638,0.07842528
549,0.03761412,0.015648022,-0.0031693191,0.05624785,-0.027285285
550,-0.0550767,0.010612372,0.0011379438,-0.04594408,0.0045816703
551,-0.038021624,0.00085239543,-0.000876227,-0.047629926,0.07573237
552,0.0008060006,-0.015872827,0.0030680217,-0.00024659265,0.04814857
553,0.0079340255,0.00019837686,0.004539334,-0.056567017,-0.048614312
554,0.021204263,0.008868821,-0.0005242521,0.03661874,0.012078523
555,0.0008974937,0.0010830832,-0.0042918064,-0.00022415037,0.0639467
556,0.0077852895,0.0020071266,-3.09061e-06,0.042497646,0.02127836
557,-0.028223986,0.0029521938,0.0347098,0.0010057719,-0.057087965
558,0.00013609724,-0.0061219526,-0.0015403265,0.024407685,0.051701553
559,5.8105674e-05,0.0029171512,0.0010878494,0.033040952,0.028437274
560,0.053291608,0.004934846,-0.00049647945,0.022577537,0.062389947
561,0.04976049,0.00027500524,0.0041615246,-0.001101188,-0.026366778
562,7.825524e-05,-0.00017557494,0.0022847292,-0.03380878,-0.0036938384
563,-0.038386114,-0.003967368,0.005179925,-0.036435466,-0.080543935
564,-3.901865e-05,-0.006061988,0.004794309,0.05816089,0.01878903
565,-0.027813425,0.0070604705,0.0025274684,-0.0032121975,-0.017932734
566,-0.019353,0.0039413073,-0.0018153233,0.0035983042,0.08141264
567,0.026398111,0.0012337973,-0.0036273738,-0.0050613508,0.05355433
568,-0.00084976363,-0.012836329,0.002749431,-0.0006198569,-0.045035746
569,0.0015105719,0.0066061257,0.0018515001,0.0007748075,-0.07603537
570,-0.017577922,-0.015952,-0.0044691353,0.051801786,0.010432188
571,0.008169894,0.006179933,0.0031985978,-0.035133477,-0.07798513
572,-0.024458712,-0.0013001063,-0.0031453427,0.013441932,-0.07882439
573,0.0623989,-0.0010621694,-0.0043557826,0.0055061397,0.01971291
574,0.04099288,-0.0037588493,-0.0035818364,-0.05889258,-0.0008278257
575,0.020707497,-0.0005972066,0.0036645674,0.023595247,-0.018224666
576,0.057850525,0.018201686,0.0039875284,-0.020805828,-0.076632276
577,0.02961162,0.0031137252,0.0082385335,0.05083931,0.0795252
578,-0.02982391,-0.0035993184,0.03577986,-0.041806266,-0.07690165
579,0.046741586,-0.0061296704,0.0032802734,-0.060889456,-0.007910265
580,-0.028977385,-0.0024391436,-0.0021841326,0.00900454,-0.009585104
581,-0.056048468,0.00027037397,0.0030222444,0.02960914,-0.05661959
582,-0.045725305,0.0015334192,-0.00075765036,-0.026943844,-0.07896461
583,-0.024697209,-0.0009590745,0.034983754,0.028576942,0.013351718
584,0.010354118,0.0042972923,-0.0023389761,-0.045080822,0.027633227
585,-0.020432126,0.008041334,0.0010175551,0.038275402,0.015872002
586,0.033366546,-0.0002104029,-0.01980777,-0.022293383,-0.068529405
587,0.001228752,9.896427e-05,0.034345433,-0.04895996,-0.01978076
588,0.038599942,0.0025723674,-0.0027511932,-0.016041646,-0.0542882
589,0.00035514432,-0.002760063,-0.0007779711,0.055315122,0.052481577
590,-6.2624924e-05,-0.0051909527,-3.257155e-06,0.014995889,0.033710618
591,-0.043750092,-0.0025295569,-0.0033569494,0.04017446,0.016342588
592,-0.037052665,-0.003652206,0.001740059,-0.035365067,0.016722841
593,-8.030441e-05,-0.009979888,0.0026736658,0.061549835,0.06740158
594,-0.062603146,0.008888625,0.020392803,0.005601677,-0.07536923
595,-0.00057729176,0.020375326,-0.0015796778,0.0075472,-0.010689864
596,0.0036347185,0.0043523954,-0.0017323015,-2.4988416e-05,-0.08238206
597,0.017252404,0.005796269,-0.0032680286,-0.039576154,-0.07905951
598,0.00047302857,0.008015559,-0.001011856,0.0005030319,-0.024270775
599,-0.012554346,-0.0036535903,0.0040434045,0.03663291,0.024999604
600,-0.00079038495,0.00908571,-0.00031973876,-0.030163772,-0.06074886
601,0.00065708073,-0.0004598068,0.0028870373,-0.00015301401,0.07701524
602,0.00065205264,-0.0062841466,0.0038580357,0.012274778,0.08257175
603,-0.010643802,0.0061683753,-0.0022155524,6.290758e-05,-0.0841255
604,0.0011983865,-0.0012872287,-0.0062177377,-0.00015068035,0.053889275
605,7.857679e-05,-0.006493674,0.00028574048,0.00017072317,-0.043133914
606,-0.05761782,0.004859996,0.0052771545,-0.05605402,-0.053229567
607,0.06290421,0.0039258664,0.00064904237,-0.0011525662,-0.06606623
608,-0.021916708,0.0014287467,0.003702264,-0.021449137,0.064768694
609,0.025222618,-0.002659102,0.002085396,-0.058065448,0.0096216155
610,-0.012137974,-0.0011775353,0.0022977623,-0.006296148,-0.067489035
611,0.00050142675,-0.016102416,0.0009499496,0.0009502025,-0.019703224
612,0.05592891,0.0033431107,-0.0027533052,-0.01293152,0.075634725
613,0.034208816,-0.00067528273,-0.0011735688,-0.0010577539,-0.011000643
614,0.0027301735,-0.0027752398,0.00946314,0.024686296,0.020585496
615,0.0026862156,-0.0042846194,0.0021466694,0.01219326,-0.03785106
616,0.0018016583,-0.007315944,0.0018198316,0.00094713777,-0.020003714
617,-0.027985577,0.007794566,0.002142204,0.000105470004,-0.0365628
618,0.033056628,0.0045338566,0.0061440626,0.025944581,-0.0044761174
619,-0.012816106,-0.0049476833,-0.00037802468,-0.0012722629,-0.0480273
620,0.02253316,0.003663602,0.0036733681,0.049367484,-0.04010218
621,0.0005813839,0.010316878,0.0013462545,-0.0517997,-0.014032065
622,0.0004980332,-0.00608908,0.0028203183,-0.06342271,0.0563626
623,-4.403456e-05,0.00325248,0.0021786427,-0.055873223,0.0080036195
624,-0.059572127,0.00033961932,0.034776047,-0.030259944,-0.019796934
625,-0.056582008,-0.007058017,0.0075925253,-0.061969064,0.00074182573
626,0.0012973546,-0.015643518,-0.0006869505,-0.004952148,0.051930934
627,0.024257695,-0.010156048,-0.0033580298,0.058594305,0.0423213
628,-0.013025036,-0.001017926,-0.005184396,-0.049170543,0.062826656
629,0.06216782,-0.0003081865,-0.0037772767,-0.059415344,-0.0008473172
630,-0.01115849,-0.0025834392,0.0018776343,-0.0009820932,-0.06804809
631,0.04523017,0.009667591,-0.0038741834,0.00024686483,-0.00021045371
632,0.0064927666,-0.00016188,0.02160712,0.054538906,-0.014104519
633,0.00056646933,-0.002588281,-0.0028951622,-0.0016843897,-0.05884834
634,-0.021778395,0.0020666043,-0.0062037483,-0.06552791,-0.004446091
635,-0.040220656,0.0099027855,-0.00088113284,0.03721212,0.016193977
636,0.00069632375,-0.0039812475,-0.0004816032,-0.0002583195,-0.077163875
637,0.036370575,0.0023447466,0.007257096,-0.029355995,-0.01339259
638,-0.047029898,0.0033609627,-0.0024344334,-0.052230258,-0.074825324
639,0.038678844,-0.00468242,0.0048275744,0.047325436,-0.02873748
640,0.00012967868,0.0005005012,0.0032881168,0.05678884,0.0063522276
641,0.0010401704,0.0060378555,-8.2192666e-05,-0.02986005,-0.055748988
642,-0.001542074,0.015107157,0.0015971441,-0.05390096,0.02765214
643,-0.010466251,-0.00045039045,-0.0041542114,-0.00034155266,0.019638008
644,0.0011246111,0.01559936,0.0031447872,-0.03215059,-0.030940473
645,0.01826054,0.0014811816,0.0034741645,0.030209221,-0.06802222
646,0.058333505,0.0061920304,0.0011951339,0.04752244,-0.03666321
647,6.6552275e-05,0.004590367,-0.003914542,-0.06408159,0.064759605
648,0.03267423,0.0023517392,-0.00037910207,-0.05320769,-0.07687056
649,-0.0125957765,0.007016318,0.00090512214,0.049442068,0.0067235194
650,-0.05720443,0.015795216,-0.0017233768,-0.030495374,-0.069458164
651,-0.04241488,-0.0051230784,-0.0030504102,-0.00011629813,0.07130673
652,0.02168515,-0.0043214997,-0.004628637,0.0445807,-0.059806667
653,-0.03298973,-0.0034171345,-0.0012909572,-0.0010171444,-0.010203567
654,-0.021314526,0.0004798909,-0.0011160548,-0.05807488,0.0015894314
655,-0.011036991,-0.011578847,-0.0019658434,4.2765583e-05,0.060398936
656,0.0069401776,-0.0006346381,-0.0017885172,-0.053068608,0.01995467
657,-0.004003909,-0.0081690205,0.0007265516,0.06556158,-0.029990919
658,-0.044950664,0.0055601727,0.04336586,-0.061130334,0.021278352
659,0.0019364407,0.01355281,-0.0019138339,-0.02989929,-0.08340992
660,-0.035199396,0.014525378,-0.0023312152,0.0030608645,0.06777524
661,-0.000295186,0.0023402413,-0.0027623358,0.061406463,-0.055907357
662,-0.039289597,0.007890249,0.0009898049,0.061622664,0.0763569
663,0.0010493438,-0.0015197643,-0.018992424,0.01460321,0.06598318
664,-0.0041395864,-0.010547589,0.0028146224,0.052173395,-0.0634317
665,-0.00079696724,-0.0008559502,-0.0013498531,0.00038339116,0.013185409
666,-0.05153631,0.005263933,0.003877718,-0.027508417,0.033545382
667,-0.00012238043,0.0031628031,-0.0023786132,-0.042973053,0.053260047
668,0.0477605,-0.005494725,-0.0021771593,-0.038134698,0.016103245
669,-0.008571753,0.00028871038,0.039002877,0.045423906,-0.032101285
670,-0.00046247977,0.0005408089,-0.0014455396,-0.00086619076,0.0028479032
671,-0.025975809,-0.009204296,0.00035415532,0.0002688334,0.02559327
672,0.037791584,0.006439611,-0.0029326153,-1.5551683e-05,-0.0095275445
673,0.0004049467,0.008908335,0.0013736443,-0.034387663,-0.009107925
674,-0.015024116,-0.01840294,0.003410011,0.011294854,-0.003422841
675,-0.0009120116,-0.0019408669,-0.002292026,0.034146994,0.051730324
676,0.048885427,0.0020598858,0.0014563007,-0.017933562,0.043120675
677,0.014417075,-0.0038488966,-0.00219153,0.034990758,-0.0660117
678,0.03504871,-0.0062248935,-0.003625559,0.037816573,-0.012557942
679,0.04753065,-0.0008425388,-0.035042368,-0.00061502965,-0.0017369989
680,-0.058731694,-0.0013851138,0.0032267745,0.0008625955,0.024229256
681,0.028133828,-0.0068986663,-0.0020184205,0.034432914,0.05116011
682,-0.017894438,-0.002384609,-0.0024752787,0.0050391685,0.04745866
683,-0.0014457887,-0.0039204936,-0.035000075,-0.03458896,-0.0055884514
684,0.019525105,0.0033102483,-0.0040118955,-0.0013149943,0.050551802
685,-0.0236499,0.009338984,-0.0043675127,0.040478386,0.07837012
686,0.01703251,0.007096367,-0.0057786433,0.00059973553,0.015522644
687,-0.031537272,-0.0012619358,0.00088514294,-0.053586755,-0.04641337
688,0.0004479774,0.004872628,0.0020642471,0.025373217,-0.0019577576
689,0.055254202,0.00903817,-0.042952295,-0.06391352,-0.0002664068
690,0.0014915935,0.011504645,-0.004257714,0.0065784063,-0.056727268
691,0.040086612,0.0018553387,-0.004012802,0.015808942,-0.0069371304
692,3.33282e-05,-0.0075559886,-0.004071283,-0.00014143108,0.07459283
693,0.0010134462,-0.015708873,0.0027017756,-0.06539355,-0.055591155
694,-0.05698191,-0.00056687114,0.00021358674,0.025409825,0.04098346
695,0.0084521305,-0.0051553673,-0.00011017022,-0.0039723064,-0.06097166
696,-0.004142248,0.00019749759,0.0025798408,-0.021325337,-0.051366545
697,0.025871646,0.0018623661,0.0011865138,0.04069301,0.050368696
698,0.027656948,-0.012572946,-0.0018667975,0.018739223,0.06634256
699,-0.0013425176,0.008909199,0.017714996,0.036790572,0.03534972
700,-0.0007176711,-0.0023527343,0.0026746197,-0.0005328358,-0.028917484
701,-0.026456865,-0.0092563545,-0.034912325,-0.021505527,0.077981204
702,-0.036436792,0.003265648,0.0018788073,-0.032084063,0.032797217
703,0.053625215,-0.019875823,0.003011265,0.004280153,0.011886369
704,0.0007990041,0.0018801923,0.0017052448,0.0030311374,-0.048108358
705,-0.028503723,-0.0048004156,-0.0027752689,-0.00044392925,0.04409846
706,0.00079811004,-0.004449147,0.001386032,-0.06772273,-0.021070587
707,0.023082081,-0.003971498,-0.001137384,0.054189786,0.031000607
708,0.016646381,0.00015033997,0.00058618444,-0.006081841,0.08153931
709,0.020210333,0.0012821386,-0.0034293286,0.025766456,-0.008236331
710,0.0010684952,-0.0032864015,-0.0007898018,-0.06430945,0.046267092
711,-0.03784387,-0.015672097,-0.0035406712,0.0055752518,-0.06169768
712,-0.0127806645,-0.019839562,0.0019402606,-0.00088648486,-0.008929115
713,0.015117232,-0.0020481455,0.0013867039,0.0010019282,-0.032791432
714,0.0017851603,-0.003486052,-0.0010167891,0.0056164055,0.044024017
715,-0.040510178,0.0016434181,-0.035618283,0.00041286656,0.041950483
716,0.05288111,-0.0020849071,0.0015547236,-0.023636995,0.0641854
717,-0.04819042,-0.018958291,0.0015902228,-0.04914306,-0.06396993
718,-0.037153605,-0.0033332151,-0.0002178554,0.019172715,0.08074285
719,-0.0054317433,0.00060550676,0.0029550272,1.662456e-05,-0.020830473
720,0.036474373,-0.00042653654,-0.0014611149,-0.003991021,0.03474368
721,-0.0028871875,-0.0024993473,0.0035798992,-0.0009984302,0.0659404
722,-0.04475899,0.002834897,0.00227499,-3.81148e-05,0.03231425
723,-0.03891232,0.00019490115,0.0036684282,0.046856366,0.018332625
724,0.0027473506,0.0011952153,-0.0064336536,0.0008220071,0.022683477
725,0.0005776241,0.015456521,-0.002097375,-0.029774938,0.05220366
726,-0.05058589,-0.00019058873,-0.00966458,0.043834936,0.07978224
727,-0.04166788,-0.0025253,0.0011914389,-0.05747084,-0.03357868
728,-0.029510636,0.0043409043,-0.0014308619,-0.00015318474,0.027985305
729,-0.007929329,0.008932413,0.003914498,0.06587299,-0.050572515
730,0.0014970816,0.0006783128,0.03517333,-0.0010105536,0.0048110783
731,0.0065340633,0.008260126,-0.0070335683,-0.059548996,-0.00080764614
732,0.0018522971,0.0013793774,0.000673717,-3.850805e-05,0.03543675
733,-0.04803742,-0.0031346907,-0.018598916,-0.07036726,-0.025133263
734,-0.024159206,-3.2890974e-05,0.00019573326,-0.015242111,-0.085527755
735,0.0012769821,0.0004305473,-0.0009865623,-0.005144832,-0.08412504
736,0.019519757,0.0012600978,0.002779797,-0.006782331,0.0340565
737,-0.05682114,0.00041164196,0.0005549911,-0.00096879323,0.02678723
738,-0.020984994,-0.003193257,-0.0039153905,0.05338005,-0.013258474
739,0.0010625791,-0.015740033,0.0038954006,-0.0009577411,-0.022980303
740,-0.011316455,-0.0006803704,0.0034138744,-0.003711123,0.007898022
741,-0.0006428181,-0.00057979015,-0.0012325143,0.0009955306,0.0514022
742,3.433714e-05,-0.008614961,-0.0033982352,0.035061557,-0.03539159
743,-0.046568885,-0.0006515731,-0.00282306,-0.004062346,0.0014966493
744,-0.06100363,-0.0029407302,0.0011034044,0.011239284,-0.045402598
745,0.0447733,0.0004173144,-0.0039460286,-0.010164802,0.064116746
746,0.056511022,-2.3261611e-05,0.0008836333,-0.054249138,0.05478753
747,-0.00065213314,-0.0074874246,-0.004062897,-0.00038339378,-0.050800197
748,-0.017631518,0.009418574,0.0031014609,-0.029066782,0.0053789327
749,-0.03494363,0.0016693868,0.0014053804,-0.01164414,0.08284871
750,0.034943573,0.004615353,0.00089604466,0.029623907,0.010974398
751,-0.0003421506,5.7949936e-05,0.001701256,-0.0027710802,0.06378008
752,-0.0016080015,0.0030235632,-0.0010928521,0.025078254,0.06960507
753,-0.0594377,-0.0006295741,-0.0070379972,0.052965194,0.05931374
754,-0.046799507,0.0045815944,0.0007857549,-0.00061614794,-0.06537937
755,-0.037433475,-0.000689718,0.0003909657,0.030001996,0.047099832
756,0.018623114,0.0078207245,0.007240556,-0.00079795095,0.035210483
757,0.025425825,0.0048715477,0.0003174524,-0.05018779,0.009524259
758,-0.012143655,-0.0029335541,0.001652753,-0.0009319064,0.04100986
759,0.038809747,-0.006352783,-0.0034862163,-0.015438836,0.054451838
760,-0.0062630414,0.0029550572,-0.0023204708,-0.06354815,0.039825343
761,-0.015171998,0.0007423585,-0.0016680651,0.03544696,-0.0065984298
762,0.01790658,0.0031150235,-0.0037291104,0.0003162321,0.02190835
763,-0.0012867603,0.0007265833,-0.0003339976,-0.03717504,-0.053227387
764,-0.00023756409,-0.0020073045,0.003510671,0.0015468696,0.079732984
765,0.032166507,0.0049553555,-0.0003667769,-0.0009297589,0.05625488
766,-0.0007186456,0.005399113,0.0005537768,-0.0042099236,-0.03879618
767,-0.0006199042,-0.016223561,0.004517082,0.0010654051,0.055292953
