,service,food,anecdotes/miscellaneous,ambience,price
0,-0.00083456165,0.0072274082,0.010719425,-0.03237717,-0.04114289
1,-0.0253291,-0.0069412366,-0.0068112514,-0.011167964,-0.01588569
2,-0.0032197936,0.006370132,0.000555324,0.04762802,0.07352826
3,-0.03454578,-0.013053882,0.01992649,-0.004874119,0.040591694
4,-0.0051081143,-0.0052537117,-0.004062376,-0.005325758,0.015050361
5,-0.02221282,0.015972305,-0.013826105,0.04992265,-0.0011956537
6,-0.05345978,0.00035600163,0.0008223377,-0.0037496032,0.06305863
7,-0.05913353,0.035063334,-0.0012921137,-0.055492017,-0.06514583
8,-0.00011390855,-0.004284243,-0.023162242,-0.0032964484,0.06689127
9,0.04037062,-0.014596939,0.037503105,-0.021818874,0.009338979
10,0.01217232,-0.005904101,-0.003559613,-0.0134999,-0.028531149
11,-0.033436194,0.007475311,0.0418271,-0.041768752,-0.0017206621
12,0.035930023,0.002997757,-0.044918016,-0.019439133,-0.031708207
13,0.036464483,-0.009646982,-0.0026206835,-0.0073343418,-0.039503157
14,0.04179444,-0.0049485303,-0.0019305449,0.055292062,-0.049324278
15,0.025304887,-0.03350554,-0.0015845789,-0.027456488,0.023083052
16,-0.06334875,0.00969925,-0.011244389,-0.0014705295,-0.04199233
17,-0.042707127,0.0003711601,0.0024965121,-0.004027622,0.036015105
18,-0.0152502665,0.0059540537,-0.002875029,-0.025859216,0.010503201
19,-0.039169524,-0.008574638,-0.012242683,-0.031290337,-0.06967439
20,-0.033894543,0.019307295,-0.0063560116,0.02654061,-0.041784428
21,0.05574111,-0.0067183166,-0.011432679,0.038158156,-0.04178695
22,-0.012914756,0.0055036875,0.00515292,0.0073393174,-0.0045029013
23,-0.024476748,0.006223218,-0.005850358,-0.028894074,-0.06482558
24,-0.05789778,-0.010295212,-0.0069109458,-0.004244882,0.053882945
25,-0.0051767956,0.0018261294,0.0015548257,0.008969802,-0.05088389
26,0.0004967715,0.011502486,0.015684152,-0.026298838,-0.032848414
27,0.003168881,-0.016462158,0.0016182649,0.004831988,-0.019889835
28,0.026821956,0.008251963,-0.005488346,-0.05919131,-0.0023885944
29,-0.005472001,-0.016988302,-0.031132864,0.05608841,0.02472771
30,-0.036522582,-0.0040403204,-0.015398675,0.00652468,-0.06375152
31,-0.032709926,-0.000914362,0.009684051,-0.049228717,0.07051921
32,0.0059021283,-0.008638606,-0.037674125,0.021201855,-0.0075756693
33,-0.06293361,0.009607034,0.009988764,-0.01232426,-0.023352513
34,0.0017404052,0.02897269,-0.0009567317,0.05766672,0.006069708
35,-0.043433163,-0.008016859,-0.004069097,0.0356976,-0.068151295
36,0.00022629417,0.027424105,-0.0038161688,0.021007886,-0.038690645
37,-0.027072312,-0.0007681889,-0.012258709,-0.007985806,-0.06823011
38,-0.04887386,0.001984633,0.041582156,0.010528855,0.01533783
39,-0.032005504,0.005931363,0.03769679,-0.0019376731,-0.06865063
40,-0.026798923,-4.4846398e-05,0.0069343336,-0.04010753,0.059908036
41,0.003244733,0.01267125,0.003780194,-0.05364444,0.027568797
42,0.028774349,-0.009387907,-0.0025776005,0.016004138,-0.046234433
43,0.024095815,0.0063810027,-0.006221188,0.06522465,0.03687491
44,3.170463e-05,0.03262539,-0.012686078,-0.028450852,-0.05222171
45,-0.005855336,-0.018136794,0.003220504,-0.013576534,-0.01482617
46,-0.022235358,0.009896477,0.0370847,0.0025793947,-0.046964843
47,0.028642874,-0.003250367,0.0046800436,-0.06302894,0.0062263794
48,-0.023438295,0.00037777182,0.011605038,-0.013653954,0.040958896
49,-0.03169047,0.001315496,0.055494215,0.020256458,-0.017889282
50,-0.000646857,-0.013998107,-0.00011589572,-0.008931368,-0.059876293
51,0.0043044,0.0014780611,0.0021131984,0.03676655,0.06789734
52,-0.031376243,-0.029121686,-0.012637953,-0.052200932,-0.039056037
53,-0.009957171,0.037402797,0.004630434,-0.029647058,-0.023688026
54,-0.0036344542,-0.008801286,0.0171861,0.03617833,-0.016192745
55,0.005296879,0.014532651,0.003944179,0.009139841,-0.04421642
56,0.009368264,0.0064683356,-0.043001473,-0.05166944,0.06363476
57,-0.0038062232,-0.034702893,-0.008866304,-0.05055647,0.04989372
58,-0.04213365,0.0060227024,-0.00208572,-0.060097992,-0.018910395
59,0.00838444,0.032935664,-0.012872948,0.0061924667,-0.042049553
60,-0.033739146,-0.0070425244,0.014166344,-0.026878351,-0.00982085
61,0.029644255,-0.014543861,-0.0005143212,0.05067696,-0.0014101177
62,0.004185567,0.006694962,0.0074364305,0.030910108,-0.059956543
63,0.020222396,-0.027449498,0.00066101685,-0.008845515,0.05349922
64,0.006490153,-0.0389833,-0.0028324076,-0.03522082,-0.05398175
65,0.004850898,0.02739755,0.004422737,0.0071858778,0.072746165
66,0.057469174,-0.009411529,-0.020629754,-0.06200424,0.008891851
67,-0.012609393,0.01913066,0.0018078687,-0.04261561,-0.065800525
68,0.0035054623,0.004602338,0.0044493726,0.007950379,0.018764947
69,0.015889484,-0.0153970085,-0.011604369,0.04705287,0.033445872
70,-0.005380648,0.007942861,-0.01265817,-0.053129796,-0.003859978
71,0.02722718,-0.00683601,-0.03926137,0.006599309,-0.021387009
72,-0.03642841,0.014930817,0.00025225512,0.0017572825,0.047251187
73,0.03416956,-0.017147081,-0.0051470064,0.014081047,-0.018114178
74,-0.0035453897,0.0038455026,-0.0066276626,0.012769464,0.021035435
75,-0.041310154,0.00936514,0.0005782457,-0.0060637533,0.016034437
76,0.042955708,0.0004126242,-0.011152052,-0.032391835,-0.038222443
77,0.0067959907,-0.0015560372,-0.040912867,0.011350151,0.018524863
78,-0.033851977,0.015871022,0.0068564545,0.063066505,-0.04612094
79,-0.00392488,-0.005843504,-0.002795679,0.0077413227,0.009984859
80,-0.034131587,0.005211129,-0.0032200094,0.00274068,0.016686384
81,0.048269395,0.0063995384,0.0065436987,-0.007260773,-0.00019678676
82,0.033817135,0.0014222014,0.0055234986,-0.047611203,0.010137776
83,0.058663916,0.013954164,0.040359735,0.044814028,0.0029495847
84,0.02548509,-0.008179267,-0.0032542234,0.031107586,0.06687276
85,-0.04143849,0.0058508143,0.0026304864,0.014677034,-0.02936913
86,-0.023256594,-0.011787534,-0.010523496,-0.047253557,-0.0082085915
87,0.028103149,0.027382353,-0.0037612733,0.0033337225,-0.012414221
88,-0.04900818,-0.00878615,-0.003305437,-0.051622316,-0.0640938
89,-0.032863777,0.019477582,0.005077352,0.022349577,0.0005928533
90,-0.0038740432,-0.03203058,-0.012944246,-0.056800198,-0.008290611
91,0.047649853,-0.0035418596,0.002886987,-0.01627981,0.029104415
92,-0.00448315,-0.009804018,0.011122783,0.052825578,-0.046808146
93,-0.046731323,0.008958951,-0.012894318,-0.008317076,0.020196406
94,-0.00945478,0.00185798,-0.019205464,0.034230173,0.04513699
95,-0.032271467,0.0046625645,0.039365437,-0.05542154,0.06802868
96,-0.016254544,0.015219866,-0.017469902,0.036721013,-4.912312e-05
97,-0.0037995793,-0.025945866,-0.009241957,0.0054694368,0.020259144
98,-0.019445127,-0.0019092005,-0.003431807,-0.027201343,0.019037519
99,-0.002103569,-0.004700751,-0.007075131,-0.018502437,0.04209022
100,0.045173883,-0.007731903,-0.018566856,0.031481422,-0.04091193
101,0.02268868,0.0022852921,-0.005641542,-0.0037084955,0.043324675
102,0.0014795836,0.011145983,0.008760564,0.05105014,0.03186144
103,0.0487777,0.033327114,-0.015051582,-0.021973094,-0.057479523
104,-0.01839684,0.00060584286,0.007946548,-0.027347455,0.028205339
105,-0.048755363,-0.0010215573,0.013127295,-0.054377865,0.03539044
106,-0.00507718,-0.027398897,0.011726195,0.017833691,-0.044566423
107,-0.044757903,-0.0029057441,0.0044147954,0.03743282,0.006666134
108,0.018328706,0.018914383,-0.041877713,-0.009042076,-0.04543378
109,-0.026632398,-0.0062953704,-0.04051271,0.0036334328,0.01547787
110,0.01444299,0.008138682,-0.0018030744,-0.00959632,-0.05278679
111,0.0013543214,0.03583458,-0.004843835,-0.048637792,-0.06460637
112,-0.04253513,-0.005399769,-0.0077549256,-0.05435525,0.008884053
113,-0.0014052772,-0.010650402,-0.0041093198,0.01575028,-0.020334288
114,-0.037952956,-0.0025731106,0.0073312563,0.0031430991,0.066600055
115,0.061693143,0.0064396886,0.0058394074,-0.0038373645,0.068147555
116,0.056386188,0.0006462874,-0.003509842,0.007723669,0.034642864
117,0.027868008,-0.0034049307,-0.0009458437,-0.039552663,0.02016949
118,-0.0032599366,0.0074737538,-0.03029987,-0.06700198,-0.042287037
119,0.0030423342,0.0012939912,-0.0019378315,0.042571135,-0.057483446
120,0.017993022,0.013662513,-0.039215032,-0.035611685,0.036175814
121,0.0035847134,0.00064963574,-0.041026443,-0.06299043,-0.05471608
122,-0.027747078,0.0064159697,0.009257394,0.06323261,0.05013082
123,-6.1601695e-06,-0.0039967815,0.027544629,-0.0041048164,0.003669707
124,-0.030749131,0.005696147,-0.005090913,-0.06211705,-0.05335696
125,-0.013566444,0.036418177,0.001232385,0.05380138,-0.030600226
126,0.031956483,0.0055914735,0.03765288,-0.016568553,-0.035583243
127,0.024779433,0.027190864,0.0043329704,-0.034048896,0.07177875
128,0.045249138,-0.002640599,-0.011071897,0.038154952,0.06177225
129,0.02853797,0.008579809,0.0047709565,-0.03233451,0.06886162
130,-0.0031164316,-0.006080693,0.0072201923,-0.054833483,0.057520516
131,-0.0053451923,0.011881646,0.0015954095,0.008229277,0.06351373
132,0.0027206803,-0.009162147,-0.0009003625,-0.0399173,0.026547931
133,0.017243516,0.013338333,-0.04360797,0.051231522,0.024715079
134,0.01617792,0.012495679,-0.022020858,-0.0019633686,0.044917632
135,-0.04383163,0.01405461,-0.003473182,0.0043673776,0.015625693
136,-0.007684795,0.00649542,-0.038577054,-0.03616115,0.046236917
137,-0.0533836,-0.0030980553,0.0013523188,-0.007847484,-0.055507615
138,-0.0042401175,0.010657604,-0.002543941,0.06080992,0.006606641
139,-0.0021338828,-0.0020264233,0.01146175,-0.012480955,0.04436792
140,-0.049663812,0.00074901927,0.032888494,0.060517002,-0.031416792
141,-0.0025536239,-0.00056081713,-0.0020252797,0.0037297178,-0.0036812404
142,0.040716834,0.02774561,-0.00676093,0.045675516,0.033554625
143,0.031322453,-0.020613613,-0.037746515,0.05175631,-0.0088304235
144,0.017915424,-0.009646619,0.00022523034,0.000673923,-0.025163926
145,-0.027010366,-0.007990053,-0.023468295,0.01948853,-0.0025866046
146,-0.04326769,0.0012644161,0.022133468,0.06850103,0.063842595
147,0.062266946,-0.0032557133,-0.03113733,-0.051187936,0.045988753
148,0.0035929575,-0.006922684,0.0014289869,0.021254893,0.05410362
149,0.0058566765,0.008755422,0.0051362147,-0.06324594,-0.0006335639
150,-0.0069601103,0.032976184,0.052149914,-0.06179047,-0.06957419
151,0.0012522278,-0.03032005,-0.042783428,0.057349805,-0.059172604
152,0.040406086,0.012690372,-0.0047426843,0.061718713,-0.042828977
153,-0.037505794,-0.007142179,-0.013501874,0.0028118445,0.0043509174
154,0.051649734,-0.027393006,-0.0057217437,-0.015056909,-0.059185117
155,0.044242464,0.036295917,-0.020557694,0.033315066,0.034238856
156,-0.013733736,0.002378819,-0.0060746544,-0.037926797,0.06992001
157,0.018330542,-0.014551552,0.009980597,0.015962843,0.010408522
158,0.02396942,0.008762541,-0.0042823646,-0.003483238,0.015240996
159,-0.0040026433,0.030135905,0.0070414427,-0.0069782115,0.064789735
160,0.006016926,0.0107404245,-0.0016757644,0.055192765,0.04865921
161,-0.011074925,-0.0063182083,0.0027090888,0.013398052,-0.06006426
162,-0.03736128,-0.027989062,-0.0076541826,0.034073237,-0.022019176
163,0.006334027,-0.0036285317,0.007657327,0.008642447,-0.060669687
164,-0.004279459,-0.021027554,-0.012816055,0.04834405,0.057476167
165,0.0016343335,-0.014271162,0.0128603885,0.0035719357,0.007724655
166,-0.004451617,-0.0009353207,0.01088484,-0.005051729,0.053282335
167,0.050750364,0.006761475,0.011599386,-0.04817564,0.0034199015
168,0.02014883,-0.004611769,-0.011551433,-0.021412792,0.0039750207
169,-0.00907113,-0.029757729,0.008557143,0.056675483,-0.0024342053
170,-0.022944989,0.007875095,-0.043214474,0.021289174,-0.017096002
171,-0.0018270508,-0.0083413515,0.0007448054,0.009951702,0.04124942
172,-0.064550765,-0.01995796,0.014681572,0.006871246,-0.023512235
173,0.0463258,0.009127599,-0.014478111,-0.009398526,-0.014312563
174,0.04200277,0.007104345,-0.018577933,-0.057798572,-0.06314276
175,0.040029727,0.0066731316,0.0024743988,-0.0021176478,0.03507026
176,-0.013160874,0.0073097814,-0.011994408,0.062045764,0.016357582
177,0.035128154,0.006540134,0.017065067,0.009852105,0.0067957886
178,0.032554444,0.00035773352,0.001698865,0.0083852345,0.006081545
179,0.048968323,0.033689305,-0.0021154745,-0.06673841,-0.024419922
180,0.030016921,-0.0033082555,-0.00051910937,-0.015401006,0.011915798
181,0.03562852,-0.011114463,-0.03085924,0.04920569,-0.05144686
182,0.036423154,0.0026391982,0.0072415792,-0.016017377,-0.005632291
183,0.006852155,-0.002452381,-0.0037616577,0.0057692747,-0.0670823
184,0.0015399671,-0.038282752,-0.04608474,0.04793331,-0.0033377095
185,0.0025396445,0.0039505865,0.0052434946,-0.045833234,0.013447681
186,0.052869137,0.0038347081,0.0026379097,-0.05465766,0.040008068
187,0.015740072,0.011930946,0.003863616,-0.03648185,0.068767644
188,0.027466796,-0.003576017,-0.012387473,0.025834411,-0.06704411
189,0.0017415115,0.0017348157,-0.043902546,0.032278795,-0.0057790894
190,0.040476564,-0.009313258,0.0049919114,0.007674392,-0.015664734
191,-0.058914628,0.019838255,0.010826437,-0.047605794,0.029372983
192,-0.048646335,0.01842543,0.02165774,-0.030525837,-0.012787848
193,0.01331365,-0.0011037565,-0.0025061492,0.0034528542,-0.018310191
194,-0.049261652,0.005501403,-0.010066541,0.05594831,0.07501442
195,-0.0026618887,0.0013843603,0.00245877,0.019011762,-0.02157385
196,-0.009183697,-0.0064814873,-0.0044665523,0.05967061,-0.0073495023
197,-0.045491476,0.012695913,0.039450854,0.019116154,-0.048210744
198,0.03835074,-0.005165018,0.004701813,0.02159053,0.05336411
199,0.005773504,0.011733356,0.041254506,-0.0025054582,0.052239995
200,-0.056842115,-0.0044122804,-0.0043920283,-0.008784575,-0.036602803
201,0.009752392,0.019654317,-0.051694956,0.008082515,-0.001634664
202,-0.025474545,0.0031890206,-0.0068605347,-0.044883724,0.01202536
203,0.016576987,0.029633438,0.0007268724,-0.015900483,-0.0016052044
204,0.0046381797,-0.038498245,0.010669679,0.045916107,0.0021885824
205,-0.05775594,-0.027529253,0.011609798,-0.021718381,-0.004132143
206,0.0038727147,-0.015987866,0.011288489,-0.014522241,-0.0004544843
207,-0.061063178,0.017400647,-0.026417173,0.043524105,-0.036355194
208,-0.043021474,0.030787477,0.012438639,-0.0017191848,-0.06545017
209,0.0024418752,0.0033718084,0.01229803,-0.0048516276,0.034453828
210,0.04061821,-0.012731065,-0.03949528,-0.06615107,0.07633285
211,-0.002821721,-0.031353198,-0.008842786,0.02486861,-0.04620268
212,0.0030255627,-0.016136542,-0.006088629,-0.029544268,-0.048536405
213,0.036879536,-0.0017887948,-0.05467984,-0.028734885,0.024941418
214,-0.012311845,0.0077087022,0.007502132,-0.009356308,-0.001922393
215,0.057188615,-0.00080212665,0.012673186,0.034115564,-0.041248538
216,-0.021538885,-0.0298433,-0.01208914,-0.059472073,-0.041008838
217,0.0031763837,-0.0019572326,-0.0040685423,0.053687263,0.05302618
218,0.037488654,-0.009492709,0.010361512,-0.06406217,-0.028402174
219,0.011837009,-0.008087659,-0.0067918324,0.058360398,-0.06323169
220,0.033266645,0.004927193,0.0015705804,0.046495616,0.06647533
221,-0.04355269,0.005238285,-0.0017020355,0.040711574,-0.026643991
222,-0.00066264026,-0.0038940555,-0.016560536,-0.03815309,0.045300767
223,0.010412856,0.0059610894,0.0024790217,-0.042080566,-0.029146133
224,0.0037871732,0.0074916356,-0.004199908,0.004164708,-0.009885302
225,0.050682418,0.019706432,-0.012528132,-0.0063398643,0.033113334
226,0.028770851,0.00079582277,0.009611176,0.015132883,0.042941652
227,-0.0337074,-0.025422843,-0.039919265,0.040770285,-0.012993229
228,0.0050242217,-0.0040406906,0.0020992148,-0.0029114722,0.041669313
229,-0.00027511368,-0.020625932,0.01655651,0.0012702767,0.0085246265
230,-0.0362902,0.0035524329,0.0017931676,0.0019079946,-0.034821145
231,0.009047441,0.0030800712,-0.0135623645,0.044563618,0.054446384
232,-0.004701255,-0.0039525838,-0.0013751906,-0.011953931,0.027781649
233,-0.0051004137,0.008478535,0.003091601,-0.052110434,-0.06633485
234,-0.033647038,-0.015973791,0.0045587695,-0.0397458,0.047430027
235,-0.05674931,0.005196571,-0.03733264,-0.026669249,-0.050587207
236,0.043711066,-0.0071865176,0.037666842,0.033204123,0.02757545
237,0.023136612,0.002866628,-0.02193328,0.044404145,-0.055976324
238,-0.005993553,0.031401858,-0.034652963,0.022203596,-0.026614232
239,0.037769686,0.013348352,0.02770844,0.0473912,-0.003677734
240,-0.05433251,-0.005489053,0.03783408,0.017614234,0.041919615
241,0.032911092,0.012413391,0.0044075474,-0.020607645,-0.03928089
242,0.0140626365,0.011410996,0.0033106182,0.00097552314,-0.07782247
243,0.03506627,0.031824205,-0.010883594,0.043743704,0.004297286
244,0.0140990885,0.0061458265,-0.042931784,0.0047987374,-0.010022982
245,-0.024804803,0.01077892,0.010201078,-0.04180661,-0.023566784
246,0.034146372,0.0056987843,-0.003755282,0.06550687,0.014143501
247,0.056688275,-0.03534107,0.03775712,-0.021205448,0.0040267105
248,0.04967186,0.007100897,-0.000721603,0.02959372,0.017636316
249,-0.010729642,0.008305802,0.03729683,0.062193394,-0.0074451906
250,0.005510492,0.03203973,-0.017916476,-0.0488873,0.06675634
251,-0.034933012,-0.011881785,0.012627369,-0.046218608,0.013278259
252,0.044987228,-0.0046709813,-0.041942064,0.030470291,-0.06776608
253,0.002209462,-0.007352315,0.010861409,0.031011328,0.06912747
254,0.056602348,-0.011708576,0.0028396451,-0.031950925,0.030878352
255,-0.032278188,0.013981373,0.0017019665,0.03326473,-0.028660646
256,-0.032073125,0.012525941,0.004748984,0.046794813,-0.07477152
257,-7.927874e-05,0.009509818,0.039996095,0.008278269,0.04857528
258,-0.026046386,0.015604207,-0.038087185,-0.067807,-0.033786003
259,-0.063118234,0.03962476,-0.0053802547,-0.008575182,0.0729607
260,0.020165572,-0.005147375,0.023865687,0.021628452,-0.07260911
261,-0.01197025,-0.020130804,-0.0024123963,0.0042857444,-0.027760873
262,-0.032134533,-0.012365498,-0.050982915,-0.018743295,0.061623745
263,-0.04352249,-0.011576423,0.010374734,-0.0038887977,0.056505315
264,0.017818796,0.03156693,-0.0130610075,0.036563236,0.008091266
265,0.034673456,-0.013026817,0.0020822147,-0.057546947,0.0020105361
266,0.01122484,-0.017892824,0.007693848,0.052059386,0.026904874
267,0.015919335,-0.008075142,0.0048951167,-0.04871276,-0.07630786
268,-0.028146006,0.0037919204,-0.004817532,-0.019369148,0.00079227734
269,-0.034831267,0.0011682152,0.0014096407,-0.009998492,0.060025796
270,0.049373128,-0.005129738,0.0020070109,0.04146857,0.019642383
271,-0.0018617552,0.0011356218,-0.011061793,-0.033566628,-0.06307944
272,0.044328947,-0.0032549805,-0.005793834,-0.060114924,0.06523573
273,-0.054501455,0.00079733477,0.003109465,0.056431748,-0.040585604
274,-0.040931873,0.0044284267,-0.0013933174,0.062069986,0.021681517
275,-0.004363575,0.008729008,0.03725179,0.04338203,-0.04988033
276,-0.0069268886,0.0039039087,0.00542824,-0.044124153,-0.034448266
277,0.0058986726,0.0017494765,-0.0024092859,-0.009495512,0.021974646
278,0.0064015416,0.0009787417,0.011783222,-0.0649882,0.06651217
279,0.029206086,-0.0022002775,0.0052130613,0.03314199,-0.019204142
280,0.056277763,0.0051932335,0.013371977,-0.047011502,0.026700092
281,0.04567769,0.008104786,0.0006718481,0.0117131015,-0.020409832
282,-0.043920312,0.002596763,-0.0035765257,-0.025232246,0.07013544
283,-0.016447533,-0.0011676165,0.038976368,-0.056107957,0.043917574
284,-0.01386234,0.007798623,0.028585957,0.054341886,0.051022142
285,0.0040477198,0.008411784,-0.011666749,-0.016652383,-0.022491224
286,0.014101923,-0.02719004,-0.024192208,-0.03529447,-0.06310864
287,0.009722364,0.0041576913,-0.012658739,-0.0070937322,-0.06910548
288,-0.054174867,-0.0060877036,-0.0056696185,0.019123293,0.037322313
289,-0.05054101,0.018465342,-0.0053351405,-0.013087877,-0.064368546
290,-0.006836713,0.00028589438,0.0020353917,-0.0410788,0.043201678
291,0.0046211844,-0.014603008,0.010971463,-0.036340334,-0.049454708
292,0.008971932,0.035589326,0.039756414,-0.03405081,-0.041411728
293,0.04185929,-0.015926845,-0.012744989,0.03170016,0.03546187
294,9.095609e-06,-0.005774771,4.4019427e-05,0.037834127,0.005578148
295,-0.012498877,0.033402298,-0.0054992842,0.0120045515,0.029365951
296,0.019197527,-0.019640941,-0.00075876503,0.032110304,-0.0398646
297,0.05806207,0.016116967,-0.0034218316,-0.062347002,0.0018818647
298,0.03376415,0.0016601533,0.005094914,0.055666927,-0.028074233
299,-0.0048182015,0.0021031145,-0.010790993,0.035484158,-0.03847039
300,-0.005273209,0.0110119395,0.032946672,0.047804374,-0.022270588
301,0.047154948,0.027703408,-0.0008785106,0.022605209,-0.012921461
302,-0.00025690632,-0.0077226027,-0.011087814,0.05133793,0.0010510077
303,-0.026592266,-0.034157056,0.04383216,0.006483317,-0.065806255
304,0.065920025,-0.006823498,0.0016498575,-0.06330275,0.06295835
305,-0.061635353,0.002637757,-0.00071826344,-0.014035238,0.04195806
306,-0.049916696,-0.007864575,0.0032199398,0.031068342,-0.004439356
307,-0.009411233,0.016741183,0.00686193,0.06879946,0.022535123
308,-0.00011530968,-0.0032157155,0.00028316313,0.002927114,-0.05992004
309,-0.0034068162,-0.002628348,-0.0026233012,-0.00439215,-0.07628318
310,0.0018214213,0.005420349,-0.006367872,-0.029948087,0.03504708
311,0.03473558,-0.007542245,-0.019471612,-0.03871002,-0.054260142
312,-0.045044657,-0.0033810209,0.047076,-0.05049599,0.07633379
313,-0.049249306,0.028144829,0.004024915,0.038487535,-0.06295186
314,-0.05598413,0.02824735,0.012113589,0.065712355,0.077770874
315,-0.0043203365,0.0037298528,0.000691497,-0.06256492,-0.006478091
316,-0.02963073,-0.006899446,-0.037655942,0.0035803788,0.05044973
317,-0.014781169,-0.004774447,-0.0024167453,-0.034715813,-0.020829024
318,0.0045260116,0.001677723,-0.009810602,0.0473907,-0.0012218686
319,0.0275795,-0.008269929,0.0067031016,-0.06593633,-0.020871503
320,0.0015194099,0.008649516,0.0047768997,-0.0028965792,0.046157066
321,0.0047770087,-0.010865146,0.022212809,-0.06898771,0.07157635
322,0.06228191,0.022084372,-0.0043276823,0.0267299,0.06945531
323,0.050842788,0.02668572,-0.0012732942,-0.02603014,-0.051064536
324,-0.015758958,0.0042975475,0.013673446,0.0026760753,-0.036227357
325,-0.012627522,4.9441336e-05,0.0016198538,0.045368984,0.018294707
326,-0.038337603,-0.009018555,0.013073515,0.011853833,-0.05646638
327,0.055165604,-0.0019769857,0.0031708418,-0.0035719748,0.028049123
328,-0.0038469643,-0.0067951833,0.0022843021,-0.033040456,0.02272722
329,-0.046884693,-0.0038866461,-0.011380949,-0.038247213,0.061122693
330,-0.0011552135,-0.014283707,-0.0056601083,0.028870566,0.064556845
331,0.001355034,-0.013062374,-0.03728297,-0.054089587,-0.029578973
332,-0.030132426,-0.014217066,0.0071621635,-0.016399719,-0.05891742
333,-0.0453315,-0.009382918,-0.004981577,-0.019527534,0.05243429
334,0.005596643,0.009650874,0.01772209,0.017981457,-0.059509203
335,0.04738851,0.011995751,-0.00423533,-0.008508796,0.04473718
336,0.021573966,0.0026854393,0.0021007792,0.009535293,-0.004437624
337,0.0011676425,-0.026653599,-0.0020751166,0.013187077,0.0003607451
338,0.007892271,-0.021033125,0.017666182,0.06587951,0.03717906
339,0.013077041,-0.008300257,0.011760822,-0.034292933,0.005011473
340,0.041829955,0.028101036,0.003021958,-0.0028399774,-0.04467075
341,-0.008944445,-0.008860479,-0.0028873032,0.0031048814,-0.025633853
342,0.06297735,-0.000949919,-0.0048208614,0.0035617482,0.06739487
343,0.027076455,-0.0049728365,0.001583517,0.0071866554,-0.020518271
344,0.004028162,0.0135680735,0.0053890906,0.0025752794,0.025735248
345,-0.003114481,-0.0020946336,0.02880525,0.03502836,0.04208122
346,-0.0155928405,0.0034808086,-0.038477156,0.033518575,0.03489617
347,-0.011144584,0.0030831934,-0.012622296,-0.036260076,0.0015955081
348,0.02739269,-0.029782837,-0.010231594,-0.0035040297,0.002414654
349,0.01753607,0.005730141,0.020654822,-0.040226776,-0.013854637
350,-0.006719518,0.018134793,-0.044136904,-0.046333633,-0.050054368
351,-0.023240272,-0.03773195,-0.00039030184,0.04076383,0.060006455
352,-0.05275053,-0.039181616,0.0020693198,-0.042713646,0.07106825
353,0.008915942,-0.0026857245,-0.023360997,-0.017766388,-0.053974673
354,-0.0054591973,0.0066419407,-0.0027499793,0.03571491,0.017071458
355,0.042307742,-0.0056746514,0.0032352833,-0.01448196,0.010291764
356,-0.0066049965,0.009077563,-0.0014662204,-0.057475224,-0.026571702
357,-0.03929444,-0.0012820036,0.011165548,0.01887395,0.041876614
358,0.00949353,0.031411856,-0.01582986,0.021769641,-0.06034557
359,-0.050445236,0.0022359684,0.0037866307,0.006432456,-0.043282844
360,0.0061636185,0.008203661,-0.011494011,0.060223576,-0.039657813
361,0.004618485,0.0061880997,-0.006358524,0.018909728,-0.046761684
362,-0.0057350616,0.0034624205,-0.0059032235,-0.045583114,-0.064196326
363,-0.03352562,-0.004055001,-0.03727371,0.016276997,-0.010779568
364,-0.035161898,0.030425942,-0.009413894,0.0020758568,0.05373542
365,-0.05245319,-0.009993234,0.0063782334,-0.058774617,0.03738536
366,-0.013020828,-0.008112303,-0.026497109,-0.005186921,-0.014891864
367,0.012143762,0.007538171,-0.0031925067,-0.022873191,0.07827982
368,-0.019498887,-0.00909082,-0.037628524,-0.003527946,-0.050884377
369,0.008036147,-0.013778497,0.04285687,0.05090169,-0.058942787
370,0.0017818325,0.010556056,-0.041811712,0.03575538,-0.062222194
371,-0.004295553,0.009060361,-0.0042481897,0.049363147,-0.06740418
372,0.0171436,-0.02081875,-0.006343981,-0.027773723,0.03355119
373,0.010070093,0.0012180826,-0.002520973,-0.04379818,-0.0010200362
374,-0.059831966,-0.014562337,0.0012190822,-0.025220232,-0.05798298
375,0.017416961,0.036176834,-0.00740788,0.010154126,-0.046546496
376,-0.05712831,-0.037984192,-0.0005672096,0.037419416,0.010504826
377,-0.042659156,-0.004084445,-0.0012756479,0.023325272,0.05486388
378,0.03706149,-0.0075892024,-0.00033312078,-0.046215508,0.038658645
379,-0.002790737,-0.010117266,0.0024644276,0.004243314,-0.05032436
380,-0.00570423,-0.011623497,-0.011497267,-0.017108649,-0.0122115845
381,-0.022029692,-0.0049859835,0.012938507,0.03548591,-0.016467674
382,-0.037040066,0.006337567,1.2236219e-05,-0.057221442,-0.0069586197
383,0.031663194,-0.0028211263,0.004011938,0.006971482,-0.028850788
384,-0.0009210846,0.0067392415,-0.013113098,-0.067699224,-0.012619343
385,0.051762056,-0.034141522,0.001057101,0.00278597,-0.04279034
386,-0.007955806,-0.010573529,-0.011641881,0.01107545,0.020506857
387,-0.0017402167,-0.018503252,-0.00078017556,0.06236727,-0.0047527724
388,-0.045374103,0.019509736,-0.0019535,0.007992386,0.06623459
389,0.016555909,-0.00076167594,0.0026420935,0.040138822,-0.023118835
390,-0.044321682,0.009561065,0.022525238,0.06977688,-0.0006390525
391,0.05720267,0.0055808285,-0.0071469746,-0.034959123,0.06532719
392,-0.0042742677,-0.0143599,0.00048323013,0.007513768,-0.010712846
393,-0.04035453,0.008147135,-0.03794884,-0.01696416,-0.0605416
394,-0.051420286,0.008194293,-0.012674854,0.038995806,-0.05044058
395,-0.006595317,-0.028467026,-0.03977215,0.058431596,0.032754187
396,-0.028855043,-0.012840463,-0.038823318,-0.027532347,-0.011980302
397,0.01993573,-0.007818336,0.00078460627,0.0014201326,-0.01931989
398,0.05919326,0.0008380234,0.014693092,-0.0063960673,0.020419082
399,0.005190326,-0.0027294005,-0.0021662645,0.04017869,0.024922306
400,0.04850083,0.017444568,-0.0100860875,0.0037557953,0.0066827345
401,0.054429445,0.0059897504,-0.0032791656,-0.0024232806,0.050526313
402,0.023045111,0.00086672587,0.042072468,-0.011042045,0.051947482
403,-0.02090644,-0.006381768,0.046248082,-0.01150355,-0.03240064
404,-0.011009101,0.009495679,0.013447365,0.008675815,0.022268519
405,0.057575013,-0.0027607856,0.0056039966,0.0522471,0.07238207
406,0.0052987877,-0.026456757,-0.0052416525,0.04544681,-0.036977995
407,-0.054781225,-0.0004686659,-0.013866556,-0.008893772,0.030266315
408,-0.04021677,0.0046128402,0.0034471774,-0.0035168007,-0.0661284
409,-0.03609234,0.006622035,-0.0011328912,0.016742224,0.07037125
410,0.053290397,0.035552256,-0.04250323,0.052057136,0.05716995
411,-0.0076595084,0.019997401,-0.002956546,0.06264888,-0.007624828
412,-0.04150501,-0.007923701,-0.0011604858,-0.054917682,0.06519247
413,0.041380815,-0.020374896,0.0036451477,-0.056413293,0.061977226
414,-0.0064738975,-0.0018291076,-0.007615019,0.01772496,-0.050607335
415,0.009310836,-0.00734731,-0.042883508,0.06842713,0.044979308
416,-0.0562596,-0.0356504,0.006704054,0.063047856,-0.062874146
417,0.03388253,0.002139381,-0.024550235,-0.054305263,-0.05492398
418,-0.0033370818,0.0022840083,-0.0026778379,-0.01064346,0.03952431
419,-0.0037859094,0.03698703,-0.005493598,0.0022316016,0.028112872
420,0.03533159,0.0006610379,0.038381413,0.053417847,-0.0063801743
421,0.00051941455,0.0024399206,0.0018943087,-0.008302376,-0.003915992
422,0.04221908,-0.013426505,0.009264926,0.012709916,-0.05784319
423,0.013129737,0.0071759718,-0.027866142,-0.025680441,0.0060062953
424,0.04796623,0.0031285835,-0.012545768,-0.02573235,0.007840854
425,-0.004198252,-0.0021553615,0.011046934,0.03237548,-0.034166284
426,-0.03673328,-0.006365031,0.040797066,0.047573544,-0.06142816
427,0.003836696,0.006198559,0.00057897135,-0.0183102,0.07663506
428,0.0044373744,-0.014085472,0.0019240216,0.0027628525,-0.055436965
429,0.038601905,-0.0094437655,-0.016522638,-0.002545954,0.014803484
430,0.053961586,-0.007990036,-0.0019324904,0.033061475,-0.06908034
431,-0.0048360494,0.02993879,0.0036360282,-0.011387596,0.042978317
432,0.053041197,0.01029747,-0.001278408,-0.0132633345,0.041362356
433,-0.035424512,0.011253913,0.0062779495,-0.052533865,0.011446345
434,0.0044971905,0.031866305,0.005688323,0.019316893,-0.049888104
435,0.0031860857,-0.009168407,-0.014114604,0.012648624,-0.010534967
436,0.021054545,-0.017509883,-0.025147408,-0.05058979,0.032400347
437,-0.038447432,0.011069843,-0.038489792,-0.003131806,-0.0028821586
438,-0.039109733,0.030700421,0.0046821926,0.059554994,-0.044489656
439,-0.00860663,0.008775356,-0.04365155,0.002940364,-0.0134392325
440,-0.015771681,0.013993567,0.0009299852,-0.0020010292,-0.06772311
441,0.044464786,-0.03694138,-0.011123385,-0.06089691,0.06370992
442,0.019731661,0.00046800802,0.02624126,0.009559108,0.047090113
443,-0.047965255,-0.032982957,0.010721778,0.019148318,-0.03412304
444,-0.016021922,0.005006164,-0.026431175,-0.041004818,0.053250037
445,0.02207146,0.0070139365,-0.0005768709,-0.04067859,-0.030829228
446,0.0164111,0.009488542,0.013062551,-0.007822757,-0.03261707
447,0.0032555447,-0.017106283,0.011729859,0.0041106213,0.031754017
448,0.021960279,0.009869678,-0.004183544,0.03147436,-0.069064274
449,-0.0033988429,0.004774402,-0.003967254,0.061843254,0.06350076
450,0.0043071727,-0.038519222,0.010413655,0.06216279,0.035420265
451,0.009768412,0.0021458794,-0.020924946,-0.0039133523,-0.005548289
452,0.031612713,0.009602065,-0.005225775,-0.0056065293,-0.01594542
453,0.03706229,-0.005619244,0.0014483583,0.04650439,0.017417662
454,-0.04202177,-0.015937584,0.0013293235,-0.014954542,0.009861198
455,-0.0041003893,0.034570675,-0.042790614,0.0025723032,0.00036002955
456,0.022279652,-0.0016193825,0.0053692297,0.03817492,-0.0013476553
457,0.043982603,0.0015031561,-0.0048540123,0.061461285,0.020728895
458,-0.009682759,-0.0013643876,-0.02094898,0.0074672424,0.013833392
459,-0.019535545,0.009586003,-0.0018839986,0.047733277,0.044060186
460,0.065605246,-0.008507998,-0.009486397,0.007896894,0.04538838
461,0.009115517,-0.010937777,0.008518556,0.0018405969,-0.007878042
462,0.04766811,0.0019774644,0.008839969,0.0041453666,-0.0077601867
463,-0.036033254,-0.011683601,0.014653707,0.005197782,0.0012781317
464,0.0020039317,-0.0014631756,-0.011900389,0.051707074,0.00352329
465,0.00572786,-0.0037246966,0.009776065,-0.004867531,-0.002412473
466,0.019426327,0.0041903807,-0.01103748,-0.05234636,-0.063074514
467,-0.002715971,-0.011464835,0.014195923,0.03908187,-0.032527123
468,-0.0023204682,-0.0075576617,0.0040574227,0.045935817,-0.03362313
469,0.051866412,-0.002104965,0.016795238,-0.013865316,0.0077842553
470,0.0046898676,0.030210879,-0.014538379,0.028052207,0.023364607
471,-0.0206884,0.011245384,-0.011124941,0.030361734,0.01008338
472,-0.05907811,0.01081163,-0.022758435,0.034259573,0.056769844
473,0.019960456,0.0018707204,0.0036654156,0.03069278,-0.03279359
474,-0.014665462,0.013632227,-0.042037383,0.038894013,0.001543002
475,-0.053917028,-0.005543102,-0.0017150465,-0.023844237,-0.056508813
476,0.020318491,0.035468895,0.0106081525,-0.0021036647,-0.0076259635
477,0.004527562,-0.0064546894,0.043234456,0.0015579673,0.012746916
478,0.05276157,-0.008085086,-0.023443298,-0.00054861465,0.021821328
479,-0.064165875,-0.02147481,0.0059028002,0.03326233,0.05552356
480,0.023815624,-0.009897837,0.0017270222,0.026075004,-0.023294037
481,-0.015097486,0.012155939,0.006113588,-0.054639902,0.029317116
482,-0.021326832,0.013780218,0.009421577,-0.04666512,-0.022637608
483,0.04480384,-0.0032491917,0.047991633,0.01932289,0.0015134022
484,0.0027889116,0.004495427,0.037181437,0.054404203,0.07695999
485,-0.00512569,-0.008911641,-0.00033347652,-0.011155215,-0.029901715
486,-0.0055416487,-0.02327981,-0.046104062,0.04712018,0.06801701
487,-0.032136146,-0.0013902148,-0.042148113,-0.06570301,0.008099086
488,-0.0043133143,-0.010596713,0.012860588,-0.023701837,0.04840741
489,0.045755394,-0.014253212,-0.012380362,0.039497785,0.014842884
490,-0.040248614,0.026155952,0.0054193004,0.02784537,-0.04435384
491,0.010286386,-0.0053308858,-0.03834547,-0.016368946,0.07146293
492,0.0041867895,0.038242824,-0.001943933,0.025716465,0.013487516
493,-0.005204837,-0.0034064867,-0.008319975,-0.037590366,0.015061081
494,-0.04725332,0.0036712678,0.03943281,0.0235723,0.0051372848
495,0.038171005,-0.0059741004,-0.038084414,-0.018296162,0.07155989
496,0.03788773,0.001550242,-0.017081825,-0.01619358,0.002466606
497,0.042279597,-0.014648809,-0.009700758,0.0486819,-0.037593883
498,-0.050802194,-0.020207707,0.0039047399,-0.011310611,-0.027997259
499,-0.04034425,-0.03360396,0.00036954854,0.034352005,-0.009646074
500,0.061161485,-0.004659147,0.022986246,-0.04297664,0.016597385
501,-0.002910935,0.00091478054,0.043679178,0.008648709,-0.040415447
502,0.003141225,-0.0011549091,0.00094422395,-0.06332451,-0.009361155
503,-0.0300437,0.01627267,-0.010607619,0.0063809464,-0.070248745
504,0.0038997158,0.005698092,-0.004541929,0.05346609,0.02050875
505,0.05141936,0.011463531,0.002507683,0.04329627,-0.029417869
506,-0.052841254,-0.0045880913,0.011488775,0.035968147,0.04035127
507,-0.019270172,-0.002260637,0.011056741,-0.05523154,0.04684979
508,0.021482522,-0.008032859,-0.0051613655,0.047964312,0.012085708
509,-0.03529177,0.0021452715,-0.0019423141,-0.026855167,0.047472365
510,0.029071834,-0.0053907726,0.0045761797,0.024051346,-0.005778276
511,-0.03077639,-0.03459508,0.004803079,0.030680152,-0.01900674
512,-0.04731504,-0.008239695,0.013277258,0.05705603,-0.0076913675
513,0.0026805068,0.009717499,-0.0133618675,-0.034721732,0.012616907
514,-0.046416957,0.007928915,0.025410516,0.021370431,0.075719506
515,0.049507223,-0.030935999,-0.025005357,-0.021854527,-0.053340916
516,0.05377687,-0.00723064,-0.038960867,0.008261835,-0.071656235
517,0.03341374,-0.0033243056,0.0011361048,0.03546657,0.06033212
518,-0.016735587,-0.003928704,-0.0007522734,0.0032621135,0.064647354
519,-0.035907477,-0.030052252,-0.0023209502,0.0024587233,0.03720981
520,-0.04810383,0.015565223,0.0390829,0.02158854,-0.01464341
521,0.04791013,0.0068881046,-0.012033677,0.037957154,0.05535396
522,0.009764006,0.018935855,0.0111437235,-0.051300924,-0.028973054
523,0.039598223,-0.03323976,0.017986754,-0.0100309225,-0.012197323
524,-0.0040885215,-0.002338461,0.0007160278,0.039183397,-0.027933218
525,-0.005876664,-1.1121735e-05,-0.0020127518,-0.0075069102,0.053481817
526,-0.013338134,0.009483931,0.014193687,-0.036687054,0.005939933
527,-0.04157991,0.036736,-0.0014113777,0.028969053,-0.06351906
528,-0.014103789,0.0084243035,0.00060811744,0.04645276,0.07263158
529,0.05499709,-0.012540269,0.011762405,-0.050748292,-0.022244573
530,0.0031143741,-0.01010812,0.0023326452,0.025434947,0.031531703
531,0.0020237535,-0.002564258,0.005562618,-0.019470261,-0.026071317
532,0.0019775054,0.0071318364,-0.010029534,-0.010607458,-0.046816397
533,-0.038109407,0.006977795,-0.0011630853,-0.0015832343,0.045184385
534,0.02322858,0.0152665,0.008180149,-0.014695686,0.008615499
535,-0.0035334437,-0.0055821,0.0016256288,-0.008697829,-0.052595127
536,0.013547377,0.032676913,0.014977805,-0.049859364,0.06228546
537,-0.015111862,0.004694007,0.004007845,0.048832543,-0.0021561447
538,-0.010775386,-0.03293755,-0.021655502,0.03390703,0.003816444
539,0.050161693,0.017179312,-0.0006597851,-0.04675697,0.021487467
540,0.03869339,0.029422306,0.010341666,0.01192088,-0.056617744
541,-0.009930582,0.008751191,-0.0140813105,0.010610939,-0.009003458
542,-0.05984971,0.034635868,-0.011655428,-0.039046366,0.011900239
543,-0.04355692,-0.004989141,-0.007959092,-0.023191612,-0.034724485
544,-0.0101482365,-0.0029839107,0.003953295,0.0032111034,-0.03074952
545,0.034237407,-0.013999957,0.00015063191,0.010527884,0.054306153
546,-0.05210974,0.033481047,-0.018237952,0.023864934,0.07075164
547,-0.003143308,0.005623137,-0.011226114,-0.03096812,0.014119502
548,0.057118945,0.03298378,0.016769845,0.01910532,0.037498116
549,0.05356482,0.002013101,0.017308932,0.019926516,0.06997774
550,0.016646113,-0.0086245695,-0.01218512,-0.008176899,-0.07085329
551,-0.0575769,0.0014998979,0.0019506698,0.033959124,-0.053682327
552,-0.005620722,0.019106977,-0.0018499797,-0.0038301025,-0.05089818
553,0.014410854,-0.011282072,0.0031967417,-0.015833236,0.0741612
554,-0.05798983,-0.033796165,-0.010428648,0.04836698,0.06424364
555,0.02731665,0.03483522,-0.0013511357,-0.028649068,-0.057670392
556,-0.017991357,0.008796669,-0.01077083,0.02469687,0.013999353
557,-0.009172438,0.0009002699,-0.005147568,0.05088685,-0.016079858
558,-0.007933431,0.009553137,0.0063720266,0.06365099,0.0026568049
559,-0.005745112,-0.009670389,0.013681667,0.026282838,0.054737613
560,0.052001465,-0.0035293065,-0.0038206908,0.040642563,-0.0080700405
561,-0.020618053,0.0061117704,-0.0025944465,0.061494645,0.04745839
562,0.017448805,-0.010181072,-0.0018088318,0.06981453,0.049514834
563,-0.0021132769,-0.0018825469,0.0058207917,-0.04770466,0.06564156
564,0.053445294,-0.003081558,0.021698605,0.013114095,-0.06833846
565,0.036762144,-0.008782896,-0.0010517482,0.04200723,0.062391218
566,-0.03032579,0.006348866,0.0070914263,-0.012454713,-0.009545316
567,0.003290914,-0.020560939,-0.00090645906,-0.04846365,-0.05586584
568,-0.0050434647,0.012107757,-0.038208976,-0.027411133,0.07751088
569,-0.003411327,-0.0065264506,0.013881481,0.03325156,0.015812749
570,-0.013969789,-0.0003370056,0.029193606,-0.032857675,-0.04694595
571,-0.007466667,0.033321705,-0.00032649114,-0.047815103,0.06700405
572,-0.0043632695,-0.00709423,0.0027279372,0.06264655,-0.0031769047
573,-0.056243427,0.0077805864,-0.006243404,-0.04840579,0.07012185
574,-0.013035251,0.009450446,-0.005905935,0.053838,0.031124793
575,0.00536056,-0.016048796,-0.012515485,0.06283839,0.025929771
576,-0.017875226,0.005181684,-0.007649942,0.009350159,0.04790231
577,0.02968469,-0.0035528515,0.026758868,-0.009092676,-0.06435208
578,0.02352839,-0.007818356,-0.03914004,0.04224862,0.030137671
579,-0.024142891,0.004033564,0.0030873318,-0.02512099,-0.041829433
580,0.042242326,0.032007344,0.043228112,-0.054240007,0.075706795
581,-0.0143642975,0.0068433536,0.006583048,-0.025818935,0.0035251088
582,-0.0020913798,-0.027219534,-1.1584815e-05,0.00841602,-0.05916714
583,0.018571274,0.0030318198,-0.014608151,-0.059406668,0.06838396
584,0.050141387,0.0014742893,-0.00638985,0.0012972603,0.06747872
585,-0.03258637,-0.0031211174,-0.00995716,0.0033398566,-0.041162334
586,-0.0055781035,0.0005304005,0.025467424,-0.013494369,0.06988447
587,0.0036592325,-0.0026793464,-0.0028879007,-0.008971816,-0.02135207
588,-0.0042929715,-0.0031031922,-0.005629566,-0.009338734,0.010309801
589,0.05859278,-0.015641121,-0.0024163797,0.009042347,0.021308338
590,0.05444188,-0.018083774,0.023158424,0.037771624,-0.065762274
591,-0.02378893,0.018625943,0.010856595,0.03713374,-0.029605113
592,0.026790438,-0.0075722677,0.01326556,0.052032456,-0.05317799
593,-0.040640254,0.034676652,0.001662831,-0.06449262,0.048189316
594,-0.06413964,-0.004252251,-0.024716843,-0.057565797,0.032402422
595,0.008538593,0.0053361324,-0.038001217,0.049080506,0.069385745
596,0.046901464,0.011857625,-0.0025907916,0.013844377,0.014178264
597,0.011978476,0.003320138,0.014849914,0.0031866347,-0.06590683
598,0.004346869,0.012504537,0.037776362,-0.03129507,0.016170248
599,0.025038768,-0.0011226939,-0.0066719064,0.051050134,0.0033659749
600,0.0059418003,-0.006529716,-0.0067326347,-0.012926028,0.07652457
601,-0.028986558,0.0078753065,0.010505863,0.033707827,0.033622734
602,0.0616722,0.006834112,0.004488543,0.020844236,-0.0027211234
603,-0.0027816135,-0.00048564913,-0.0039777877,0.003420257,-0.07432148
604,-0.020382157,-0.012971005,0.011113232,0.009180556,-0.030159412
605,0.05341893,0.029140957,-0.010869591,-0.04325584,0.006025654
606,0.04392524,-0.0011680616,-0.039466385,0.016581424,-0.049306355
607,-0.018296348,-0.013162402,0.002620949,-0.02375123,0.011461016
608,-0.038991835,0.025531262,-0.0046188296,-0.0017896792,-0.038623624
609,0.0031956634,-0.011690852,0.049072605,-0.029175611,0.030995209
610,0.014713035,0.0059280475,0.012357862,0.043149576,0.05502246
611,-0.049194295,0.015147938,0.0011317605,0.043135297,-0.0029731276
612,0.02397137,0.0020276278,-0.010335501,0.010513846,0.028018545
613,0.023003764,-0.0038322797,0.037806053,0.035024386,-0.006579817
614,-0.032892592,-0.007775588,0.00089009193,-0.026908478,0.050066978
615,0.03669093,0.00037483632,-0.0022264249,-0.009005312,0.0007883545
616,0.004549237,0.005971638,0.039909042,0.03571816,0.054942623
617,-0.0024874776,-0.0071317544,-0.006578479,-0.01759282,-0.02773939
618,0.03772583,0.038354337,-0.00088182697,0.016259307,0.06934471
619,-0.05818946,0.009032077,-0.0027380532,0.008530575,0.072463945
620,-0.0045191813,-0.033473223,0.0029500932,0.024709307,-0.041800667
621,-0.03642882,-0.012049907,0.0044608745,-0.066994645,0.018488122
622,-0.030608851,-0.00010499147,-0.0020184522,-0.0055704005,0.041043084
623,-0.019070694,0.031059206,-0.001831241,-0.0076799835,-0.043201976
624,-0.03303827,0.009792396,-0.011060491,0.05245022,-0.07535876
625,0.0517056,-0.0037233613,-0.003895559,0.020771962,-0.065052144
626,-0.03867377,0.020672156,-0.011480475,-0.05419356,-0.05138807
627,-0.037739653,0.017064594,0.005268847,-0.03161078,0.016409
628,-0.0063170996,0.008070051,0.010152922,0.029182957,0.040158067
629,0.021595864,0.0039013498,0.0253307,0.06559265,0.06450564
630,-0.05380352,0.03880175,-0.024981428,-0.012146789,0.011317154
631,0.050580576,0.012564838,-0.012088463,0.024858814,0.06703334
632,-0.035734415,-0.0022429675,-0.005267725,0.0023489424,0.052500002
633,-0.0020026905,0.0011500252,-0.00852934,-0.03563774,-0.025416344
634,-0.0002760236,0.0028501227,-0.014136716,0.0073293694,-0.017077127
635,0.050755754,0.03741056,-0.011991904,0.042857356,-0.018066045
636,-0.006504726,0.013144698,0.0061241915,-0.022156378,0.06710394
637,-0.043629237,-0.0144005185,-0.037389852,0.053635836,0.04618198
638,-0.037197635,-0.032461926,-0.009796403,0.02328242,0.042089764
639,-0.064137965,0.0046580415,0.037368864,0.0051942356,0.059168972
640,0.003901202,-0.005723161,-0.0060893144,0.058379598,-0.0013823584
641,-0.049749445,-0.017200015,-0.00012429393,-0.046250455,-0.04439625
642,-0.022242116,-0.0044538653,0.0019462352,0.0030153086,-0.037347108
643,0.06298329,0.008075545,-0.027647557,0.0038762619,-0.027093407
644,-0.05138883,-0.006299458,-0.004925606,-0.0076873535,-0.054009944
645,-0.0037658045,-0.005147201,-0.0059098233,-0.062230676,-0.058610126
646,-0.01585792,0.027841544,-0.012837738,-0.007625381,0.030958436
647,-0.0032989385,-0.0075610783,0.000898975,0.0333887,-0.013276751
648,0.041992534,-0.010652458,-0.0021718692,-0.046996567,0.019065436
649,-0.038939573,-0.009976974,-0.038910042,-0.01822108,0.04469625
650,-0.00454142,-0.028531006,-0.0024596308,-0.05215733,-0.058586296
651,0.062334567,0.004214452,-0.016493848,-0.05644836,0.06586598
652,-0.0385482,0.0104054455,-0.0035687177,-0.039009996,0.021316435
653,-0.065093316,-0.0012583146,-0.03902708,-0.042397007,0.015099966
654,0.0045804866,-0.025466198,-0.043344676,0.010881314,-0.02349451
655,-0.012698038,-0.009484723,-0.04457737,0.018645613,-0.008139549
656,-0.012873315,-0.006320883,0.037674204,0.026867839,-0.008271681
657,0.03776932,0.008754551,0.026192542,0.012427315,-0.018063039
658,0.0008759557,0.0010245339,-0.0009495994,-0.0305513,0.018808369
659,-0.004111838,0.036966104,0.009776863,-0.059799477,0.054682788
660,-0.048262995,-0.00034830972,-0.0030029106,-0.029674117,-0.011523991
661,0.017347906,-0.013397663,-9.786104e-05,0.0031963678,0.054414228
662,-0.0042240834,0.0032533798,-0.039694753,0.010704268,-0.0137144625
663,0.043432124,0.015923942,-0.0033379695,-0.008305505,-0.0055889436
664,0.01541888,-0.0068037454,0.014449674,0.06805087,0.034184802
665,0.04992981,-0.030976238,-0.012576272,0.047713816,0.03482644
666,0.0013954303,0.0042923535,-0.018363677,-0.037691824,0.060963184
667,0.0024255258,0.0067747347,0.0073572695,-0.005270072,-0.012542145
668,-0.062023934,0.009365407,-0.01687474,0.025155086,-0.055561557
669,-0.0104818465,0.0017258001,-0.01657442,-0.032389235,-0.047247414
670,0.033477224,-0.0035836024,-0.0013379302,-0.034381323,0.048817847
671,0.03168097,-0.002147774,-0.0048738406,0.059047945,-0.0024775288
672,-0.031869162,0.0047375043,0.010690991,0.041689828,-0.07088042
673,0.031404797,-0.00033210832,-0.004568437,-0.035887256,0.045420647
674,0.004754799,0.0009996879,0.012037491,-0.05277391,0.019278985
675,0.00097579724,-0.013737275,0.01047435,-0.011888656,-0.06541301
676,-0.0035895533,-0.0033981078,-0.005270305,-0.055069596,0.015144854
677,-0.027370293,0.0054285433,-0.015142368,-0.015878767,-0.07182208
678,-0.057269957,0.010065915,-0.0064784214,-0.055449564,-0.026156854
679,0.054649394,0.0056641386,-0.01589836,0.008754247,0.0050558043
680,-0.047338914,-0.0028235705,-0.022391737,0.06219077,-0.05407082
681,-0.011429236,-0.010278029,-0.01216706,-0.04112904,-0.029259074
682,-0.014970618,-0.013704026,-0.0028515125,0.040810104,-0.013927306
683,0.0046732053,-0.0035509926,0.0005499089,-0.013352464,0.048323438
684,0.0018577789,0.022759058,0.0010051405,0.0243567,0.00042945708
685,-0.05044625,-0.011428095,-0.0026493825,0.0404363,0.0280123
686,0.0051917974,-0.03612682,0.03911124,0.04985323,0.048850924
687,-0.040718608,-0.0033829254,-0.0024296907,-0.022694126,0.008149435
688,-0.061467342,0.0075295167,-0.0123102255,-0.0031760628,0.048516575
689,0.032499515,-0.0022124003,-0.0008591409,0.009872678,0.027375128
690,0.046302978,-0.030977068,-0.0071657626,-0.025400376,-0.04374231
691,-0.005679061,-0.021491399,0.0022532684,0.0078015607,0.06595363
692,-0.019395309,0.0057361256,-0.040441293,0.05049654,0.010260791
693,0.036988325,-0.004807949,-0.011668873,0.011095887,-0.0036152378
694,0.052367836,0.003555698,0.004393258,-0.045910057,-0.06832538
695,-0.0027362492,0.01349755,0.0011591456,0.0026907215,-0.016607728
696,-0.04707579,-0.005040258,-0.0013462708,-0.019951979,0.03574474
697,0.05231148,0.004989599,0.003479933,0.032259677,0.016605321
698,0.0015081689,-0.012923602,-0.0023682285,0.056809425,-0.07194413
699,0.005887593,-0.01287189,0.013958919,0.0014782497,0.054714497
700,0.01256938,-0.009745156,0.0045033707,-0.007575673,0.04206887
701,0.0032456135,-0.034910306,0.0007289296,-0.051154196,-0.055501197
702,0.03810689,0.034385927,-0.0024660805,-0.042559717,0.025148861
703,0.00510722,-0.028619679,-0.011078475,-0.035922997,-0.005832074
704,-0.0040221508,-0.00070716103,0.011589213,0.049186025,0.052756246
705,-0.05338431,-0.011280545,-0.011121062,0.017563751,-0.002770711
706,0.032317825,-0.016251897,0.0046168775,-0.021118462,0.005028963
707,0.005333512,0.0060364525,-0.0053597474,0.036793817,0.029771728
708,0.009085365,0.0028795826,-0.0056189713,-0.018652856,0.055846617
709,-0.0028455663,0.007396292,0.048389617,0.051369414,-0.067138426
710,0.019021718,-0.0006948212,0.0037953004,-0.036551975,-0.047444295
711,0.044624273,0.015825285,-0.0030854275,-0.039951533,-0.045924492
712,-0.0004130987,0.009669037,-0.043985337,0.021912089,-0.0327837
713,-0.011198095,0.0051252893,-0.0066446057,0.013428181,0.023373865
714,-0.05777352,0.037704714,-0.0072620637,-0.0065449616,-0.014036607
715,-0.010113938,-0.027377628,0.021900814,-0.0029589613,-0.0008253262
716,-0.027914984,0.01088555,0.011073232,-0.018730262,0.032371625
717,0.06048271,-0.008385631,0.0050043645,0.038796507,0.039518274
718,0.0015485283,-0.009756769,0.03797165,-0.0018810794,-0.037203513
719,0.050927557,-0.006377821,-0.038119573,-0.0035507446,0.053939864
720,-0.004484098,0.03691347,-0.006272451,-0.0018559885,0.026586164
721,-0.007723094,0.003523521,-0.00226871,0.013173515,-0.06664323
722,-0.0045478777,0.00057272566,0.0137017025,-0.049334776,-0.036240272
723,-0.005315592,-0.0033981923,-0.0065266923,0.0035428223,0.04866691
724,0.00081616896,0.004944626,0.0037765238,0.040956236,-0.06432141
725,-0.0057610706,-0.0036476192,0.002823053,0.01291358,0.06598327
726,0.028769119,0.0014130666,0.013557476,-0.021768674,-0.060865343
727,-0.051087737,0.01658568,0.017977513,-0.032343075,-0.0655482
728,-0.04591878,-0.00952428,0.00271279,-0.01232865,0.024342535
729,0.017343212,0.017426388,0.00067344913,-0.058243625,0.008448737
730,-0.027748195,0.03063096,-0.00048041515,0.00784715,0.06499502
731,-0.02754039,-0.0026687353,-0.0047139847,0.0501794,0.04206082
732,0.0032878974,-0.0037938342,0.020099957,0.0028880965,-0.04091002
733,-0.033892553,-0.0075782198,0.011495704,0.00878783,0.043190386
734,-0.0576821,-0.00564284,-0.0108207585,0.050601702,-0.06805236
735,0.006125631,-0.0107534025,0.00035281767,0.044408277,-0.0196003
736,0.02517057,-0.008715333,0.0028535035,0.003882817,-0.013596908
737,0.009827956,0.00047596695,0.00053242705,-0.00946944,0.051787183
738,0.03497934,0.009694295,-0.0148674855,-0.01002798,-0.0119011635
739,0.04603818,0.03191114,0.0016652851,0.040174387,-0.07000096
740,-0.034026306,-0.00054539816,0.021640789,-0.049722347,-0.016055226
741,-0.039347596,-0.0074986396,0.0009543423,-0.036875725,-0.061147776
742,0.004287869,-0.0033802488,-0.01144591,0.03185168,0.04470842
743,-0.0072413394,-0.011882993,-0.003107802,0.0056492607,0.07350657
744,0.053617526,-0.0113418335,-0.002264803,0.06642554,0.015813904
745,0.037689615,-0.014290093,0.0003547744,-0.06670223,0.028710278
746,0.0027180915,-0.002094503,-0.011118619,-0.0014560185,0.035983987
747,0.04173776,0.0072746687,-0.0044435873,-0.061958093,-0.06966477
748,0.0016535866,-0.033088773,0.0065236175,-0.04744497,0.0049336283
749,-0.039395615,-0.013564948,0.020472107,0.01887586,-0.04197589
750,-0.00804199,0.0215175,-0.0056320545,-0.037334256,-0.0056111696
751,-0.004983554,0.0030384206,0.03741911,0.031957686,0.04210995
752,-0.054563854,0.0028999478,-0.013570296,-0.0426416,-0.0060632313
753,0.005860138,0.0076001724,0.017925322,0.012276484,0.014563954
754,0.0030257537,-0.003011786,0.001607719,0.027181743,-0.011012333
755,-0.05061732,0.03623405,-0.0008555116,0.0391121,-0.019809147
756,-0.0019502176,0.007009776,-0.018363906,-0.0037070352,-0.028480245
757,0.007020952,-0.009436929,-0.006546391,-0.056737438,-0.01362476
758,0.0024579985,-0.0066049895,0.012383602,-0.060343683,-0.019098127
759,-0.036458686,0.0060102353,-0.03728468,-0.023559825,-0.055460256
760,-0.026522812,0.0019245384,0.01596544,0.02868077,-0.058882177
761,-0.03392223,-0.0019585746,-0.0037409149,-0.021528251,-0.030939603
762,0.024409287,-0.0002902516,0.0019470121,-0.06276494,-0.06585373
763,-0.006902837,-0.019460779,0.005029305,-0.06887974,0.063854665
764,0.03991452,0.00038208245,0.0020157562,0.061351355,0.002613965
765,-0.04495631,0.013711857,0.0012794546,-0.06267599,0.068668015
766,-0.057582658,0.0149845565,-0.004415695,-0.058065552,0.071095176
767,-0.0064967102,-0.0052332673,0.016007088,-0.0124067385,0.07371901
768,7.44133e-05,0.014487799,0.0029523799,-0.027242988,0.016702065
769,0.05828368,0.014467566,0.043613322,0.033836037,-0.037525866
770,-0.008284786,0.015305175,-0.001987821,0.036778796,-0.054153502
771,-0.00082793616,-0.012944959,0.0067529078,-0.0015487284,-0.055606104
772,-0.036170598,-0.00784642,0.037276726,-0.0022126716,-0.015944637
773,-0.053377245,0.0114245815,0.0062825037,-0.002137466,0.0007992827
774,0.051988523,-0.0019193697,0.009978167,-0.059645616,0.04732929
775,-0.037898116,0.013993201,0.017660296,-0.008849085,0.03543594
776,0.022076692,-0.028016023,0.011057146,0.06882616,-0.06034382
777,0.010792948,-0.009450454,-0.042450037,0.04524664,-0.013901145
778,0.053753447,-0.010688465,0.0037588442,-0.052838597,-0.057222217
779,-0.019907026,-0.012474706,0.042802453,-0.06267607,-0.00025574057
780,0.03219338,0.02076413,0.017566692,0.02201135,-0.033154733
781,-0.013872123,-0.012065693,0.022040226,-0.0050085024,0.028037991
782,0.00487736,0.021342924,-0.018076992,-0.057952993,-0.030472696
783,0.011784824,0.010434413,-0.0036207945,0.050183866,0.0008852395
784,0.002765373,0.0047257813,0.0016483516,-0.016255913,0.046284128
785,0.02524211,-0.012198029,-0.0047759055,-0.055896536,-0.047666714
786,-0.04593152,-0.030771349,0.012480525,0.008825625,0.0014811341
787,-0.006266121,0.0037942652,-0.01019959,0.03736807,-0.04399649
788,-0.028974695,0.024106786,0.0034080415,-0.029986203,-0.07373094
789,-0.008241724,0.0036793135,0.052625075,-0.0038145164,0.05746267
790,-0.0012909976,-0.006409501,-0.005739383,0.015843742,0.05338484
791,0.006519174,0.0032206322,-0.037099212,-0.053174783,-0.06981496
792,-0.01111431,-0.008642531,-0.007287483,-0.0031633968,0.06459252
793,0.050580226,0.008563935,0.004889511,-0.009413051,-0.00053615327
794,0.050860897,-0.022133991,-0.010753021,0.019065406,0.0563073
795,0.0039587226,0.010268349,-0.00078344275,0.00045458233,0.0062762583
796,-0.011413124,-0.0029575676,-0.0076800752,-0.052559357,-0.071664706
797,0.04250665,-0.014657063,-0.019752733,0.05693674,0.05358721
798,0.04721454,-0.03587936,0.03805854,0.039586417,0.06954534
799,0.044619698,0.02972043,-0.02224081,0.00479583,-0.023160849
800,0.004236039,0.0089451745,0.005166493,0.061494973,-0.07400748
801,-0.026130525,-0.021620123,0.0050731935,-0.03601566,0.029347058
802,0.046943724,-0.0111469785,-0.012483477,0.036946822,-0.061073124
803,0.0045656413,0.0044887485,-0.0041837106,-0.05521118,0.056581967
804,0.039284877,-0.027617598,-0.0014302664,-0.035495404,0.027177272
805,-0.0018576013,-0.00583211,-0.045302358,0.05271535,0.014541093
806,0.054403123,-0.0028013347,-0.0061672186,-0.008743316,-0.008804599
807,0.00025999782,-0.009617981,0.007825976,0.06522008,-0.00785797
808,-0.022878502,0.0037235192,0.020326857,-0.0028442093,-0.015856905
809,-0.0042415145,-0.038095508,0.026325332,-0.054489292,0.016804013
810,-0.057257455,-0.010551657,0.0014302495,-0.009816614,-0.035433296
811,0.010486191,-0.0036609992,-0.00082254293,-0.03491114,0.034625065
812,-0.013473817,0.010281104,-0.0018508332,0.0474975,0.02017084
813,-0.03762395,0.013351298,-0.0011849995,0.014406908,-0.017435784
814,-0.018794406,0.012493636,-0.011904516,-0.058011673,-0.030681025
815,0.0059497547,0.009119616,-0.0013756488,-0.054148857,0.05411503
816,-0.055970993,-0.037101693,0.006914149,-0.06775919,0.058451142
817,-0.038235497,0.002443067,0.0063437656,-0.011416197,-0.07235445
818,0.050276127,-0.0090848105,-0.0055538258,-0.024837393,-0.015023022
819,0.004553966,-0.0018865425,-0.01154904,-0.006627733,-0.05644866
820,-0.004074322,0.02813656,0.0035427327,0.060468327,-0.004577018
821,0.053574096,0.033517666,0.0031336776,0.043906774,0.043960787
822,-0.00638049,0.0066251177,0.003006596,-0.014279502,0.07715187
823,0.005634721,-0.00386978,-0.010793913,0.0077236826,0.053448826
824,0.025625136,-0.012690671,-0.0014878113,-4.515322e-05,0.059835423
825,-0.0058698165,0.005323424,0.0008496475,0.0030818337,-0.014074387
826,-0.03021647,-0.012376507,0.017289093,-0.049286935,0.057041112
827,0.018219622,-0.0043053995,0.0057776603,-0.0077078263,0.044489436
828,-0.06463273,0.029292777,-0.032902006,0.00713186,-0.07377502
829,-0.0026065842,-0.0062401122,0.037605897,0.016275812,-0.0009471065
830,0.029708039,-0.0042493762,-0.007215549,0.053549115,-0.03269635
831,-0.0043035704,0.010057906,-0.005417032,-0.005552794,-0.044840332
832,-0.0148530435,0.010436791,-0.011445615,-0.038600318,0.053225134
833,-0.032370634,-0.009562159,0.0055384794,0.03718008,0.057629216
834,-0.028346207,0.005635956,0.009915218,0.013037523,-0.04858508
835,0.055517543,0.012598352,0.043646485,0.0550644,-0.030580567
836,-0.018273706,-0.005069662,-0.011541037,0.018890778,0.05640445
837,-0.029391354,0.0052880333,-0.0010509449,0.0027813506,-0.0740948
838,-0.04743853,-0.001486956,-0.038947728,-0.0087096365,-0.054643206
839,0.044654496,0.008509504,-0.052688953,-0.06931956,-0.060501233
840,-0.0009073114,0.018445281,-0.005397801,0.0060647517,-0.04008337
841,-0.010817076,-0.017278166,-0.004232478,-0.005203662,-0.059746508
842,-0.056859545,0.0016602003,0.0027139825,-0.040831372,-0.012266628
843,0.03271938,0.002948035,0.0030453703,-0.024903344,0.041710228
844,-0.05224533,0.01255185,0.03988776,0.0013999578,-0.04208876
845,0.005437419,-0.0062094685,0.0027498244,0.0029357504,0.03913126
846,0.014506983,-0.019495722,-0.0015572867,-0.019688837,0.013200899
847,0.004258067,-0.033100817,0.027165217,-0.034640003,0.032628905
848,-0.04679009,-0.008172826,0.0037905562,-0.012505912,-0.048932515
849,-0.0038831544,-0.011451961,-0.006425755,0.009186935,0.054228485
850,-0.05206293,0.01979332,-0.00845132,-0.023626694,0.021522634
851,0.022676207,-0.0067933346,-0.010850358,0.046339113,0.07020831
852,-0.014769796,0.0046679582,0.043609165,-0.042822137,-0.07611368
853,0.00018932065,0.006271945,0.0060904087,0.014130955,0.04730396
854,-0.0037035642,-0.012802444,0.00078784704,-0.0608868,-0.018371886
855,0.0023800475,-0.014429726,0.012528734,0.0064324457,0.02902002
856,0.054095343,0.019283716,-0.017121132,-0.02604852,-0.028756283
857,0.029739743,0.0036263547,0.055109285,0.01844962,0.025151065
858,-0.044474058,-0.015356452,-0.013465175,-0.055007916,-0.064019844
859,0.008571582,0.010403246,-0.0064795692,0.004529132,0.06556954
860,-0.03894035,0.004279713,-0.00015054303,-0.006857197,-0.028469415
861,0.000118747106,0.015695022,0.005641114,0.012260879,0.008646694
862,-0.02488787,-0.005413705,-0.0065616807,0.025203176,0.06702629
863,-0.037302967,0.014038818,0.0060199876,-0.05028769,0.04658778
864,0.050326657,-0.006576589,-0.0010088722,0.01553219,0.0015288851
865,0.044980973,0.009129461,-0.002623659,-0.016544381,0.0025960312
866,0.047070738,0.0030645248,0.038168244,0.04507002,0.033951167
867,-0.044232495,0.003738134,-0.037796423,0.00421573,-0.039381444
868,-0.02520388,0.03178315,0.00471386,-0.009694669,0.060556084
869,0.011421843,0.002255786,0.024600793,0.053965505,-0.017287806
870,0.056786772,-0.0016108601,0.025154402,0.0027225604,-0.0687017
871,-0.0045845397,0.004872549,0.0041749123,-0.062425427,-0.02010449
872,0.04782327,-0.00014542787,0.0032115104,-0.042680867,-0.035437405
873,0.038719404,0.018483965,-0.0022356622,0.0037848172,0.06473071
874,0.002434086,-0.010298423,-0.006912009,-0.03227603,0.032413885
875,-0.0055305474,0.019576414,-0.037304882,-0.0351348,-0.028626336
876,-0.016856844,0.003937516,-0.0005457542,0.053383876,-0.0015382869
877,-0.0012211561,-0.00951151,-0.037650093,-0.018611874,0.0452448
878,0.051233575,0.0066492106,0.00091531966,0.020507898,0.061870378
879,0.009745228,-0.03409823,-0.039312776,-0.05014566,0.022706898
880,0.03563646,-0.0053970874,-0.02680487,-0.029102089,0.062769294
881,0.004713729,-0.005081653,-0.0045229755,0.002085148,0.036828823
882,0.04848909,-0.00305861,-0.0019154088,-0.008693075,-0.033186052
883,-0.048951797,0.0013889141,-0.045558028,-0.047391858,0.051129833
884,0.011709323,0.008236408,-0.022042383,0.023316981,-0.028241437
885,0.004038439,0.0018785611,-0.040126283,0.024976855,0.007323207
886,0.0059489566,0.0024254688,-0.025525592,0.057782043,-0.017131524
887,-0.01347834,-0.015517727,-0.0011652571,-0.038549446,-0.031378355
888,0.008507095,-0.024441987,-0.004108991,-0.001848197,-0.02409759
889,-0.02454117,-0.0077089905,0.0058709816,-0.047524855,-0.03973901
890,0.002374284,-0.027660707,-0.01413236,-0.01658452,0.014360352
891,-0.0033019194,-0.0037012293,0.0072517334,-0.023686623,-0.0611581
892,-0.045856144,-0.0016950232,-0.012395385,-0.043496072,0.05308916
893,0.061036766,-0.019016821,0.003974249,0.05826206,-0.026187949
894,-0.0042502093,0.007877227,0.0118736075,-0.032959692,0.04116033
895,-0.046031967,0.0046900027,-0.037315078,-0.017499331,0.035891183
896,0.062000144,-0.006844691,-0.013150256,0.04529369,0.032918297
897,-0.004047356,0.00025235425,0.0133198965,0.05371484,0.001510883
898,-0.0043163258,-0.008531958,0.0020043638,0.013494931,-0.0036412408
899,-0.003150711,-0.03558026,0.012485145,0.030224616,-0.04263805
900,0.05672086,-0.008143201,-0.0033607634,0.034095656,-0.049291424
901,-0.0044424264,-0.003941519,0.037878055,0.03630292,0.030352037
902,-0.027868384,-0.0038717012,-0.004319898,-0.05185913,-0.07066413
903,-0.005179661,-0.0036817065,-0.0011105912,0.006204461,-0.061820928
904,0.0022807748,-0.007694574,-0.013853051,0.042375643,0.03193385
905,0.028738149,0.0061290236,-0.014445454,-0.062909566,0.025221609
906,-0.005942345,0.0019232099,0.0034962601,0.0072455467,-0.06183628
907,-0.00906479,-0.029169057,-0.005346022,-0.032673005,0.027987843
908,0.032928646,-0.006842659,-0.0043438086,0.037015174,-0.012169793
909,0.0062004738,0.016246283,-0.0034112907,0.001991286,0.053540014
910,-0.011156837,-0.006505709,0.0017256833,-0.0029525927,0.07256577
911,-0.0026990848,0.014574894,0.0028889363,-0.008396182,0.0058925073
912,0.017309388,0.029064106,0.0011292143,-0.05128952,-0.009811345
913,0.04805094,0.0006549637,-0.0006678609,-0.012405008,-0.012910764
914,0.05975935,0.0006097622,-0.0028314437,-0.008881119,0.051060136
915,0.0025049797,-0.0074962857,0.0029205615,0.046068247,0.016918331
916,-0.028317425,0.0014543431,-0.0015385974,0.037579887,-0.053645965
917,-0.04349677,0.006951566,0.011588179,-0.012339843,-0.0068935994
918,0.004387221,0.005073478,0.011383625,0.028530762,-0.0048623127
919,-0.047688078,-0.0010600104,-0.002061469,0.05378773,0.054259714
920,-0.0026029171,0.02083903,0.00015738835,-0.033441722,0.00096683716
921,-0.047588594,-0.0022671483,0.024636293,-0.0040765326,0.0768538
922,-0.05366432,0.033036295,-0.0043570297,-0.016333284,-0.056693275
923,0.01059772,-0.0010156563,0.006869995,0.009352505,0.04089025
924,0.011471076,-0.019696485,0.038650516,0.037089743,-0.025319003
925,0.04785032,0.0048725097,0.00081231305,0.054386966,0.07034392
926,0.06544864,-0.00616051,-0.014207025,0.04616739,0.04205281
927,-0.018568704,0.0073929043,0.0010588375,-0.03318583,-0.038170066
928,-0.05196839,0.037022263,-0.016858952,-0.0304561,-0.062074095
929,0.03139582,-0.0014268338,0.015663672,0.0086121075,-0.06611237
930,-0.030310607,-0.004437452,-0.009768718,0.009605121,0.057640467
931,-0.012886301,-0.019589087,0.024308478,-0.04052921,0.058805242
932,0.0057756174,-0.010364009,-0.00037007075,0.04137023,-0.069372885
933,0.03370627,-0.008046655,0.025338652,0.03730743,0.023097154
934,0.035079584,-0.008671205,-0.004485215,-0.055755246,-0.025100373
935,0.0019890326,-0.0025992505,-0.0186991,0.053265024,0.004747776
936,0.0147995455,-0.0006747951,-0.011228303,0.047357127,-0.055780105
937,0.05443175,-0.020521028,-0.0055156597,0.0009588672,-0.048668385
938,-0.048583344,0.008378754,-0.012898813,-0.008021891,0.045413706
939,-0.0032433511,0.003106992,0.00072515314,0.0016042095,-0.07052567
940,-0.01624131,-0.0092611,-0.0031649664,0.0119042955,-0.025952892
941,0.02735765,-0.024416262,-0.030218689,-0.045865722,0.046609584
942,-0.057387684,0.005139202,0.0060562314,0.040338315,-0.052392762
943,-0.0021820522,-0.007796522,0.017348053,-0.051424477,0.04515937
944,0.055288985,-0.031649258,-0.02659404,0.008720544,-0.046838656
945,-0.024452312,-0.007926156,0.013250616,0.051636275,0.033471674
946,0.046205837,-0.0009106395,0.039890572,-0.017267441,-0.042160545
947,-0.005141027,0.0037851366,0.0026319565,-0.038694438,0.07549675
948,-0.039876714,-0.036778666,0.017131882,-0.03992507,0.066461176
949,0.016128719,-0.006413021,0.0013213545,0.04408972,-0.05084378
950,0.010414905,-0.0016673446,-0.008558929,-0.006707747,-0.038463764
951,-0.0058952374,0.0025357462,-0.007588413,-0.02136154,-0.0017415509
952,0.039453138,-0.0027735801,-0.0132593075,0.008499264,0.059645116
953,0.011866532,-0.00666067,-0.0034968948,0.003959113,-0.057893995
954,0.042271174,-0.0049704174,0.04105108,0.057417072,0.005812088
955,0.0073158443,0.001783205,-0.0048143044,-0.0031381766,-0.06797806
956,0.00819932,0.007817389,-0.010709139,0.048254292,-0.040854014
957,-0.0041346657,-0.007572479,0.011514438,-0.030452695,0.0030242032
958,-0.0029601885,0.035703443,-0.039435323,-0.048182905,0.061895896
959,-0.012977299,0.03249991,-0.0008756102,0.03011613,-0.030166553
960,0.0055117905,-0.00010677497,0.004437641,-0.029351506,0.055873707
961,0.021154104,-0.015678598,-0.0040231855,-0.053093843,0.011597168
962,-0.038164705,-0.014965411,0.040116902,-0.010385944,0.045387514
963,0.0048496206,-0.033146117,-0.03748811,-0.019080773,0.025072088
964,-0.042127326,-0.009175149,-0.00046948815,0.044607006,-0.05752732
965,-0.013948115,0.009626855,0.0028130831,-0.055486448,-0.0058628353
966,0.0012803256,-0.0061778785,0.01770622,0.055478554,0.022543466
967,0.012569862,-0.006655956,-0.03757072,0.017777272,-0.042263824
968,0.02524962,0.0018952382,-0.0043302635,0.013098017,0.037485033
969,0.0050133257,-0.0012425222,-0.0066501815,0.064192034,-0.060738858
970,0.00493531,0.005988941,0.018715877,-0.018645175,0.012852798
971,-0.0559094,0.007785891,0.006316914,0.06263233,-0.035997372
972,0.03551845,0.008923791,-0.05434282,0.00998916,-0.042145625
973,0.003599459,-0.011617116,-0.006096804,0.008279942,0.07756198
974,0.0048735314,0.004051647,-0.00651417,-0.050046973,-0.071024455
975,-0.001839856,0.001375147,-0.012701343,-0.043559015,0.034873422
976,-0.01826754,-0.000461574,0.0068393536,-0.06768257,0.04720378
977,0.0039862413,-0.009672373,0.008116848,0.018804144,-0.030242642
978,-0.02646891,0.0094782915,0.011041419,0.033385977,-0.014997332
979,-0.056008276,0.00423477,-0.007291206,-0.062259525,-0.036902037
980,0.015463292,-0.0033295685,-0.0006593966,-0.06903814,0.013980339
981,0.008334635,-0.01903502,0.00046013933,-0.002925957,-0.052527707
982,-0.0056203525,-0.010113653,-0.026559977,0.058292773,0.055456206
983,0.0047281096,-0.004692438,0.0038114523,0.054430965,-0.034810133
984,0.028748816,-0.0019736653,0.020429675,-0.023604015,-0.027717866
985,-0.050121907,-0.03817822,0.005971142,-0.026610857,-0.029987384
986,-0.005659487,-0.008611487,-0.018153226,-0.014106168,-0.060205515
987,-0.053252574,-0.0075547276,-0.0135677075,-0.012820442,-0.06817841
988,-0.0036511067,-0.030019443,-0.013462356,0.034575343,0.06861644
989,-0.0051125684,-0.014079101,0.0066626943,0.04931242,0.06375028
990,-0.05122729,-0.017509043,0.0058414782,0.04481732,0.007028729
991,0.012365453,0.019115627,-0.0045197224,0.05468966,0.040052507
992,-0.015028364,-0.026448073,0.03732064,-0.04363355,0.03242168
993,0.01324497,0.0019213589,1.2287267e-06,0.027092747,-0.061575502
994,0.010544158,0.0051456224,-0.0031865789,0.058022574,-0.0045461003
995,-0.043447774,-0.028438454,0.012395145,-0.048597258,-0.03295489
996,-0.040102206,0.0077151055,0.0036566728,0.0024132177,0.034397062
997,0.023303444,0.009932546,0.022309765,0.027369758,-0.077177845
998,-0.03701176,0.00844837,-0.017517088,0.036480807,0.004693025
999,-0.005518816,0.0074478257,0.0021766792,0.056769796,-0.06886506
1000,0.008221264,-0.02335656,-0.006391539,0.04830137,0.0069642356
1001,0.04010708,0.018983873,-0.024617407,0.00494737,0.030375002
1002,-0.01322136,-0.038376767,0.0126435375,0.021735327,0.008276498
1003,-0.04407979,-0.004124727,-0.005807696,-0.049100686,-0.061988886
1004,0.0028705932,-0.02116097,0.002772302,0.03784407,0.030854726
1005,0.010630208,-0.0020101743,-0.014671842,0.0500674,-0.047228035
1006,0.027908416,0.0083049415,-0.0010386743,-0.0027481052,0.051662423
1007,-0.00084437814,0.0015207904,-0.0011523894,0.045226943,-0.011142026
1008,0.051403325,-0.0032847421,-0.011893303,-0.02735476,-0.030041996
1009,0.009855658,0.011419031,0.007036836,0.062821485,-0.046524305
1010,-0.017464695,-0.02021135,0.011525354,-0.052872147,-0.045014117
1011,0.020474268,0.038597193,-0.039830852,0.024485296,-0.07317422
1012,-0.0027992476,0.009236645,0.0027775362,-0.0014612562,0.025465911
1013,0.005242143,0.0031000653,0.0041866563,-0.025383433,0.0018329171
1014,-0.06147888,-0.0071657905,-0.004240282,0.022359913,0.005808138
1015,-0.025112705,-0.032670397,-0.038173374,-0.011837051,0.040982347
1016,-0.065427996,-0.007323337,0.018501123,0.0028987722,-0.06277247
1017,-0.035063915,-0.006799478,0.04062587,-0.03284872,-0.05782394
1018,-0.04928817,0.032935124,-0.03749642,-0.02674574,0.0647057
1019,0.06340222,0.004398182,0.004489423,-0.0365809,-0.0064833914
1020,-0.027025452,-0.02145218,0.003060852,-0.015412132,-0.029663332
1021,0.032804947,0.013842194,0.023489516,0.046260133,-0.031575356
1022,-0.0008441972,-0.0001743035,-0.0010323558,-0.0037743407,0.03206622
1023,-0.05136954,-0.002270473,0.041028608,-0.06251465,0.0062934537
